<?xml version="1.0"?>
<opencv_storage>
<opencv_ml_knn>
  <format>3</format>
  <is_classifier>1</is_classifier>
  <default_k>10</default_k>
  <samples type_id="opencv-matrix">
    <rows>53</rows>
    <cols>300</cols>
    <dt>f</dt>
    <data>
      255. 255. 255. 255. 255. 255. 255. 255. 255. 255. 255. 255. 255.
      255. 255. 255. 255. 255. 255. 255. 255. 255. 255. 255. 255. 255.
      255. 255. 255. 255. 255. 255. 255. 242. 242. 242. 67. 67. 67. 191.
      191. 191. 246. 246. 246. 250. 250. 250. 222. 222. 222. 91. 91. 91.
      185. 185. 185. 255. 255. 255. 255. 255. 255. 248. 248. 248. 194.
      194. 194. 253. 253. 253. 255. 255. 255. 255. 255. 255. 249. 249.
      249. 92. 92. 92. 154. 154. 154. 255. 255. 255. 255. 255. 255. 255.
      255. 255. 255. 255. 255. 255. 255. 255. 226. 226. 226. 86. 86. 86.
      71. 71. 71. 220. 220. 220. 255. 255. 255. 255. 255. 255. 255. 255.
      255. 255. 255. 255. 215. 215. 216. 48. 48. 48. 124. 124. 124. 254.
      254. 254. 255. 255. 255. 255. 255. 255. 255. 255. 255. 255. 255.
      255. 255. 255. 255. 236. 236. 236. 52. 52. 52. 202. 202. 202. 221.
      221. 221. 221. 221. 221. 221. 221. 221. 142. 142. 142. 118. 118.
      118. 255. 255. 255. 255. 255. 255. 255. 255. 255. 255. 255. 255.
      255. 255. 255. 255. 255. 255. 255. 255. 255. 255. 255. 255. 255.
      255. 255. 255. 255. 255. 255. 255. 255. 255. 255. 255. 255. 255.
      255. 254. 254. 254. 165. 165. 165. 91. 91. 91. 114. 114. 114. 241.
      241. 241. 255. 255. 255. 255. 255. 255. 255. 255. 255. 255. 255.
      255. 255. 255. 255. 250. 250. 250. 116. 116. 116. 56. 56. 56. 60.
      60. 60. 219. 219. 219. 255. 255. 255. 255. 255. 255. 255. 255.
      255. 243. 243. 243. 86. 86. 86. 51. 51. 51. 78. 78. 79. 38. 38.
      39. 67. 67. 67. 25. 25. 25. 33. 33. 33. 182. 182. 182. 255. 255.
      255. 255. 255. 255. 255. 255. 255. 255. 255. 255. 255. 255. 255.
      255. 255. 255. 255. 255. 255. 255. 255. 255. 255. 255. 255. 255.
      255. 255. 255. 255. 255. 254. 254. 254. 73. 73. 73. 191. 191. 191.
      255. 255. 255. 255. 255. 255. 218. 218. 218. 60. 60. 60. 177. 177.
      177. 254. 254. 254. 255. 255. 255. 255. 255. 255. 255. 255. 255.
      255. 255. 255. 196. 196. 196. 51. 51. 52. 49. 49. 49. 157. 157.
      157. 239. 239. 239. 255. 255. 255. 255. 255. 255. 255. 255. 255.
      255. 255. 255. 255. 255. 255. 255. 255. 255. 255. 255. 255. 255.
      255. 255. 253. 253. 253. 155. 155. 155. 88. 88. 88. 255. 255. 255.
      250. 250. 250. 211. 211. 211. 242. 242. 242. 255. 255. 255. 255.
      255. 255. 255. 255. 255. 255. 255. 255. 229. 229. 229. 59. 59. 59.
      254. 254. 254. 254. 254. 254. 208. 208. 208. 55. 55. 55. 101. 101.
      101. 198. 198. 198. 182. 182. 182. 84. 84. 84. 76. 76. 76. 239.
      239. 239. 255. 255. 255. 255. 255. 255. 255. 255. 255. 255. 255.
      255. 255. 255. 255. 255. 255. 255. 255. 255. 255. 255. 255. 255.
      255. 255. 255. 255. 255. 255. 255. 255. 255. 255. 255. 255. 255.
      255. 255. 254. 254. 254. 165. 165. 165. 91. 91. 91. 114. 114. 114.
      241. 241. 241. 255. 255. 255. 255. 255. 255. 255. 255. 255. 255.
      255. 255. 255. 255. 255. 250. 250. 250. 116. 116. 116. 56. 56. 56.
      61. 60. 60. 219. 219. 219. 255. 255. 255. 255. 255. 255. 255. 255.
      255. 243. 243. 243. 86. 86. 87. 51. 51. 51. 79. 79. 79. 38. 38.
      38. 66. 66. 66. 25. 25. 25. 33. 33. 33. 182. 182. 182. 255. 255.
      255. 255. 255. 255. 255. 255. 255. 255. 255. 255. 255. 255. 255.
      255. 255. 255. 255. 255. 255. 255. 255. 255. 255. 255. 255. 255.
      255. 255. 255. 255. 255. 255. 255. 255. 255. 255. 255. 255. 255.
      255. 255. 255. 255. 175. 175. 175. 35. 35. 35. 140. 140. 140. 255.
      255. 255. 255. 255. 255. 255. 255. 255. 255. 255. 255. 255. 255.
      255. 253. 253. 253. 130. 130. 130. 89. 89. 89. 123. 123. 123. 140.
      140. 140. 255. 255. 255. 255. 255. 255. 255. 255. 255. 255. 255.
      255. 251. 251. 251. 103. 103. 103. 139. 139. 139. 254. 254. 254.
      128. 128. 128. 140. 140. 140. 255. 255. 255. 255. 255. 255. 255.
      255. 255. 253. 253. 253. 74. 74. 74. 34. 34. 34. 34. 34. 34. 34.
      34. 34. 34. 34. 34. 34. 34. 34. 37. 37. 37. 246. 246. 246. 255.
      255. 255. 255. 255. 255. 255. 255. 255. 255. 255. 255. 255. 255.
      255. 234. 234. 234. 114. 114. 114. 123. 123. 123. 236. 236. 236.
      255. 255. 255. 255. 255. 255. 255. 255. 255. 255. 255. 255. 255.
      255. 255. 255. 255. 255. 255. 255. 255. 255. 255. 255. 255. 255.
      255. 255. 255. 255. 255. 255. 255. 255. 255. 255. 255. 255. 255.
      255. 255. 255. 254. 254. 254. 165. 165. 165. 91. 91. 91. 114. 114.
      114. 241. 241. 241. 255. 255. 255. 255. 255. 255. 255. 255. 255.
      255. 255. 255. 255. 255. 255. 250. 250. 250. 116. 116. 116. 56.
      56. 56. 61. 61. 61. 219. 219. 219. 255. 255. 255. 255. 255. 255.
      255. 255. 255. 243. 243. 243. 86. 86. 86. 51. 51. 51. 79. 79. 79.
      38. 38. 38. 66. 66. 66. 25. 25. 25. 33. 33. 33. 182. 182. 182.
      255. 255. 255. 255. 255. 255. 255. 255. 255. 255. 255. 255. 255.
      255. 255. 255. 255. 255. 255. 255. 255. 255. 255. 255. 255. 255.
      255. 255. 255. 255. 255. 255. 255. 255. 255. 255. 254. 254. 254.
      99. 99. 99. 195. 195. 195. 255. 255. 255. 255. 255. 255. 255. 255.
      255. 255. 255. 255. 255. 255. 255. 255. 255. 255. 255. 255. 255.
      254. 254. 254. 98. 98. 98. 119. 119. 119. 130. 130. 130. 145. 145.
      145. 209. 209. 209. 255. 255. 255. 255. 255. 255. 255. 255. 255.
      255. 255. 255. 255. 255. 255. 218. 218. 218. 233. 233. 233. 255.
      255. 255. 255. 255. 255. 230. 230. 230. 56. 56. 57. 200. 199. 200.
      255. 255. 255. 255. 255. 255. 255. 255. 255. 253. 253. 253. 255.
      255. 255. 255. 255. 255. 255. 255. 255. 254. 254. 254. 147. 147.
      147. 127. 127. 127. 255. 255. 255. 255. 255. 255. 237. 237. 237.
      68. 68. 68. 99. 99. 99. 201. 201. 201. 184. 184. 184. 66. 66. 66.
      116. 116. 116. 252. 252. 252. 255. 255. 255. 255. 255. 255. 255.
      255. 255. 255. 255. 255. 255. 255. 255. 255. 255. 255. 255. 255.
      255. 255. 255. 255. 255. 255. 255. 255. 255. 255. 255. 255. 255.
      255. 255. 255. 255. 255. 255. 254. 254. 254. 165. 165. 165. 91.
      91. 91. 114. 114. 114. 241. 241. 241. 255. 255. 255. 255. 255.
      255. 255. 255. 255. 255. 255. 255. 255. 255. 255. 250. 250. 250.
      116. 116. 116. 56. 56. 56. 61. 61. 61. 219. 219. 219. 255. 255.
      255. 255. 255. 255. 255. 255. 255. 243. 243. 243. 86. 86. 87. 51.
      51. 51. 79. 79. 79. 38. 38. 38. 66. 66. 66. 25. 25. 25. 33. 33.
      33. 182. 182. 182. 255. 255. 255. 255. 255. 255. 255. 255. 255.
      255. 255. 255. 255. 255. 255. 255. 255. 255. 255. 255. 255. 255.
      255. 255. 255. 255. 255. 255. 255. 255. 255. 255. 255. 255. 255.
      255. 243. 243. 243. 61. 61. 62. 138. 137. 137. 242. 242. 242. 237.
      237. 237. 107. 107. 107. 84. 84. 84. 251. 251. 251. 255. 255. 255.
      254. 254. 254. 109. 109. 109. 105. 105. 106. 212. 212. 212. 140.
      140. 140. 142. 142. 142. 231. 231. 231. 255. 255. 255. 255. 255.
      255. 255. 255. 255. 254. 254. 254. 73. 73. 73. 40. 40. 40. 181.
      181. 181. 255. 255. 255. 254. 254. 254. 145. 145. 145. 101. 101.
      101. 252. 252. 252. 255. 255. 255. 254. 254. 254. 131. 131. 131.
      59. 59. 59. 250. 250. 250. 255. 255. 255. 255. 255. 255. 238. 238.
      238. 40. 40. 40. 245. 245. 245. 255. 255. 255. 255. 255. 255. 251.
      251. 251. 111. 111. 111. 58. 58. 58. 196. 196. 196. 177. 177. 177.
      56. 56. 56. 186. 186. 186. 255. 255. 255. 255. 255. 255. 255. 255.
      255. 255. 255. 255. 255. 255. 255. 255. 255. 255. 255. 255. 255.
      255. 255. 255. 255. 255. 255. 255. 255. 255. 255. 255. 255. 255.
      255. 255. 255. 255. 255. 255. 255. 255. 254. 254. 254. 165. 165.
      165. 91. 91. 91. 114. 114. 114. 241. 241. 241. 255. 255. 255. 255.
      255. 255. 255. 255. 255. 255. 255. 255. 255. 255. 255. 250. 250.
      250. 116. 116. 116. 56. 56. 56. 60. 60. 60. 219. 219. 219. 255.
      255. 255. 255. 255. 255. 255. 255. 255. 243. 243. 243. 86. 86. 87.
      51. 51. 51. 79. 79. 79. 38. 38. 38. 66. 66. 66. 25. 25. 25. 32.
      32. 32. 182. 182. 182. 255. 255. 255. 255. 255. 255. 255. 255.
      255. 255. 255. 255. 255. 255. 255. 255. 255. 255. 255. 255. 255.
      255. 255. 255. 255. 255. 255. 255. 255. 255. 255. 255. 255. 254.
      254. 254. 73. 73. 73. 191. 191. 191. 255. 255. 255. 255. 255. 255.
      255. 255. 255. 181. 181. 181. 46. 46. 46. 223. 223. 223. 255. 255.
      255. 255. 255. 255. 255. 255. 255. 255. 255. 255. 255. 255. 255.
      254. 254. 254. 163. 163. 163. 69. 69. 69. 249. 249. 249. 255. 255.
      255. 255. 255. 255. 255. 255. 255. 255. 255. 255. 255. 255. 255.
      255. 255. 255. 183. 183. 183. 57. 57. 57. 248. 248. 248. 255. 255.
      255. 255. 255. 255. 255. 255. 255. 255. 255. 255. 255. 255. 255.
      255. 255. 255. 247. 247. 247. 58. 58. 58. 201. 201. 201. 255. 255.
      255. 255. 255. 255. 255. 255. 255. 255. 255. 255. 255. 255. 255.
      255. 255. 255. 254. 254. 254. 132. 132. 132. 80. 80. 80. 254. 254.
      254. 255. 255. 255. 255. 255. 255. 255. 255. 255. 255. 255. 255.
      255. 255. 255. 255. 255. 255. 255. 255. 255. 255. 255. 255. 255.
      255. 255. 255. 255. 255. 255. 255. 255. 255. 255. 255. 255. 255.
      255. 255. 255. 255. 255. 255. 255. 255. 255. 255. 254. 254. 254.
      165. 165. 165. 91. 91. 91. 114. 114. 114. 241. 241. 241. 255. 255.
      255. 255. 255. 255. 255. 255. 255. 255. 255. 255. 255. 255. 255.
      250. 250. 250. 116. 116. 116. 56. 56. 56. 60. 60. 60. 219. 219.
      219. 255. 255. 255. 255. 255. 255. 255. 255. 255. 243. 243. 243.
      86. 86. 86. 51. 51. 51. 79. 79. 79. 38. 38. 38. 66. 66. 66. 25.
      25. 25. 33. 33. 33. 182. 182. 182. 255. 255. 255. 255. 255. 255.
      255. 255. 255. 255. 255. 255. 255. 255. 255. 255. 255. 255. 255.
      255. 255. 255. 255. 255. 255. 255. 255. 255. 255. 255. 255. 255.
      255. 255. 255. 255. 246. 246. 246. 82. 82. 82. 172. 172. 172. 249.
      249. 249. 246. 246. 246. 146. 146. 146. 89. 89. 89. 251. 251. 251.
      255. 255. 255. 255. 255. 255. 239. 239. 239. 62. 62. 62. 225. 225.
      225. 255. 255. 255. 255. 255. 255. 203. 203. 203. 55. 55. 55. 248.
      248. 248. 255. 255. 255. 255. 255. 255. 238. 238. 238. 74. 74. 74.
      60. 60. 60. 115. 115. 115. 111. 111. 111. 54. 54. 54. 86. 86. 87.
      246. 246. 246. 255. 255. 255. 253. 253. 253. 76. 76. 76. 177. 177.
      177. 255. 255. 255. 255. 255. 255. 255. 255. 255. 254. 254. 254.
      154. 154. 154. 120. 120. 120. 255. 255. 255. 255. 255. 255. 241.
      241. 241. 75. 75. 75. 96. 96. 97. 199. 199. 199. 193. 193. 193.
      82. 82. 82. 88. 88. 88. 248. 248. 248. 255. 255. 255. 255. 255.
      255. 255. 255. 255. 255. 255. 255. 255. 255. 255. 255. 255. 255.
      255. 255. 255. 255. 255. 255. 255. 255. 255. 255. 255. 255. 255.
      255. 255. 255. 255. 255. 255. 255. 255. 254. 254. 254. 165. 165.
      165. 90. 90. 91. 114. 114. 114. 241. 241. 241. 255. 255. 255. 255.
      255. 255. 255. 255. 255. 255. 255. 255. 255. 255. 255. 250. 250.
      250. 116. 116. 116. 56. 56. 56. 60. 60. 60. 219. 219. 219. 255.
      255. 255. 255. 255. 255. 255. 255. 255. 243. 243. 243. 86. 86. 87.
      51. 51. 51. 79. 79. 79. 38. 38. 38. 66. 66. 66. 25. 25. 25. 33.
      33. 33. 182. 182. 182. 255. 255. 255. 255. 255. 255. 255. 255.
      255. 255. 255. 255. 255. 255. 255. 255. 255. 255. 255. 255. 255.
      255. 255. 255. 255. 255. 255. 255. 255. 255. 255. 255. 255. 255.
      255. 255. 212. 212. 212. 55. 55. 55. 209. 209. 209. 250. 250. 250.
      188. 188. 188. 43. 43. 43. 186. 186. 186. 255. 255. 255. 255. 255.
      255. 254. 254. 254. 75. 75. 75. 181. 181. 181. 255. 255. 255. 255.
      255. 255. 255. 255. 255. 195. 195. 195. 58. 58. 58. 248. 248. 248.
      255. 255. 255. 255. 255. 255. 225. 225. 225. 62. 62. 62. 196. 196.
      196. 247. 247. 247. 198. 198. 198. 52. 52. 52. 37. 37. 37. 245.
      245. 245. 255. 255. 255. 255. 255. 255. 255. 255. 255. 255. 255.
      255. 255. 255. 255. 249. 249. 249. 255. 255. 255. 192. 192. 192.
      70. 70. 70. 249. 249. 249. 255. 255. 255. 255. 255. 255. 215. 215.
      215. 51. 51. 51. 128. 128. 128. 207. 207. 207. 100. 100. 100. 52.
      52. 52. 226. 226. 226. 255. 255. 255. 255. 255. 255. 255. 255.
      255. 255. 255. 255. 255. 255. 255. 255. 255. 255. 255. 255. 255.
      255. 255. 255. 255. 255. 255. 255. 255. 255. 255. 255. 255. 255.
      255. 255. 255. 255. 255. 255. 255. 255. 254. 254. 254. 165. 165.
      165. 91. 91. 91. 114. 114. 114. 241. 241. 241. 255. 255. 255. 255.
      255. 255. 255. 255. 255. 255. 255. 255. 255. 255. 255. 250. 250.
      250. 116. 116. 116. 56. 56. 56. 60. 60. 60. 219. 219. 219. 255.
      255. 255. 255. 255. 255. 255. 255. 255. 243. 243. 243. 86. 86. 87.
      51. 51. 51. 79. 79. 79. 39. 39. 39. 66. 66. 67. 25. 25. 25. 33.
      33. 33. 182. 182. 182. 255. 255. 255. 255. 255. 255. 255. 255.
      255. 255. 255. 255. 255. 255. 255. 255. 255. 255. 255. 255. 255.
      255. 255. 255. 255. 255. 255. 255. 255. 255. 255. 255. 255. 255.
      255. 255. 255. 255. 255. 254. 254. 254. 202. 202. 202. 34. 34. 34.
      37. 37. 37. 218. 218. 218. 255. 255. 255. 255. 255. 255. 255. 255.
      255. 255. 255. 255. 255. 255. 255. 250. 250. 250. 85. 85. 85. 86.
      86. 86. 77. 77. 77. 119. 119. 119. 255. 255. 255. 255. 255. 255.
      255. 255. 255. 255. 255. 255. 255. 255. 255. 219. 219. 219. 37.
      37. 37. 184. 184. 184. 161. 161. 162. 43. 43. 43. 242. 241. 241.
      255. 255. 255. 255. 255. 255. 255. 255. 255. 254. 254. 254. 111.
      111. 111. 34. 34. 34. 34. 34. 34. 34. 34. 34. 34. 34. 34. 132.
      132. 132. 255. 255. 255. 255. 255. 255. 249. 249. 249. 207. 207.
      207. 47. 47. 48. 157. 157. 157. 255. 255. 255. 253. 253. 253. 118.
      117. 117. 50. 50. 50. 216. 216. 216. 255. 255. 255. 255. 255. 255.
      255. 255. 255. 255. 255. 255. 255. 255. 255. 255. 255. 255. 255.
      255. 255. 255. 255. 255. 255. 255. 255. 255. 255. 255. 255. 255.
      255. 255. 255. 255. 255. 255. 255. 254. 254. 254. 165. 165. 165.
      91. 91. 91. 114. 114. 114. 241. 241. 241. 255. 255. 255. 255. 255.
      255. 255. 255. 255. 255. 255. 255. 255. 255. 255. 250. 250. 250.
      116. 116. 116. 56. 56. 56. 60. 60. 60. 219. 219. 219. 255. 255.
      255. 255. 255. 255. 255. 255. 255. 243. 243. 243. 86. 85. 86. 51.
      51. 51. 79. 79. 79. 38. 38. 38. 66. 66. 67. 25. 25. 25. 32. 32.
      32. 183. 182. 182. 255. 255. 255. 255. 255. 255. 255. 255. 255.
      255. 255. 255. 255. 255. 255. 255. 255. 255. 255. 255. 255. 255.
      255. 255. 255. 255. 255. 255. 255. 255. 255. 255. 255. 255. 255.
      255. 255. 255. 255. 255. 255. 255. 255. 255. 255. 255. 255. 255.
      255. 255. 255. 191. 191. 191. 71. 71. 71. 255. 255. 255. 255. 255.
      255. 255. 255. 255. 255. 255. 255. 255. 255. 255. 255. 255. 255.
      255. 255. 255. 255. 255. 255. 191. 191. 191. 71. 71. 71. 255. 255.
      255. 255. 255. 255. 255. 255. 255. 255. 255. 255. 255. 255. 255.
      255. 255. 255. 255. 255. 255. 255. 255. 255. 191. 191. 191. 71.
      71. 71. 255. 255. 255. 255. 255. 255. 255. 255. 255. 255. 255.
      255. 101. 102. 102. 174. 174. 174. 255. 255. 255. 255. 255. 255.
      188. 188. 188. 72. 72. 72. 255. 255. 255. 255. 255. 255. 255. 255.
      255. 255. 255. 255. 216. 216. 216. 48. 51. 51. 147. 147. 147. 183.
      184. 184. 59. 60. 61. 208. 208. 208. 255. 255. 255. 255. 255. 255.
      255. 255. 255. 255. 255. 255. 255. 255. 255. 255. 255. 255. 255.
      255. 255. 255. 255. 255. 255. 255. 255. 255. 255. 255. 255. 255.
      255. 255. 255. 255. 255. 255. 255. 255. 255. 255. 254. 254. 254.
      175. 175. 175. 94. 94. 94. 105. 106. 106. 224. 224. 224. 255. 255.
      255. 255. 255. 255. 255. 255. 255. 255. 255. 255. 255. 255. 255.
      250. 250. 250. 127. 127. 127. 57. 57. 57. 58. 58. 58. 191. 191.
      192. 255. 255. 255. 255. 255. 255. 255. 255. 255. 233. 233. 234.
      74. 75. 75. 50. 50. 50. 73. 74. 74. 40. 41. 41. 56. 57. 57. 32.
      32. 33. 29. 29. 29. 130. 130. 130. 255. 255. 255. 255. 255. 255.
      255. 255. 255. 255. 255. 255. 255. 255. 255. 255. 255. 255. 255.
      255. 255. 255. 255. 255. 255. 255. 255. 255. 255. 255. 255. 255.
      255. 254. 254. 254. 233. 233. 233. 44. 44. 44. 198. 198. 198. 252.
      252. 252. 242. 242. 242. 128. 128. 128. 94. 94. 94. 239. 239. 239.
      252. 252. 252. 255. 255. 255. 247. 247. 247. 45. 45. 45. 210. 210.
      210. 208. 208. 208. 55. 55. 55. 178. 178. 178. 254. 254. 254. 255.
      255. 255. 255. 255. 255. 255. 255. 255. 247. 247. 247. 44. 44. 44.
      53. 53. 53. 76. 76. 76. 101. 101. 101. 252. 252. 252. 255. 255.
      255. 255. 255. 255. 255. 255. 255. 255. 255. 255. 247. 247. 247.
      45. 45. 45. 198. 198. 198. 255. 255. 255. 165. 165. 165. 78. 78.
      78. 241. 241. 241. 255. 255. 255. 255. 255. 255. 253. 253. 253.
      216. 216. 216. 44. 44. 44. 184. 184. 184. 249. 249. 249. 234. 234.
      234. 146. 146. 147. 68. 68. 69. 222. 222. 222. 249. 249. 249. 255.
      255. 255. 255. 255. 255. 255. 255. 255. 255. 255. 255. 255. 255.
      255. 255. 255. 255. 255. 255. 255. 255. 255. 255. 255. 255. 255.
      255. 255. 255. 255. 255. 255. 255. 255. 255. 252. 252. 252. 154.
      155. 155. 89. 90. 90. 124. 125. 125. 243. 243. 243. 255. 255. 255.
      255. 255. 255. 255. 255. 255. 255. 255. 255. 255. 255. 255. 247.
      247. 247. 104. 104. 105. 54. 54. 54. 67. 67. 67. 223. 223. 223.
      255. 255. 255. 255. 255. 255. 255. 255. 255. 208. 208. 208. 66.
      66. 66. 48. 48. 48. 66. 66. 66. 33. 33. 33. 56. 56. 56. 25. 25.
      25. 32. 32. 32. 153. 153. 153. 255. 255. 255. 255. 255. 255. 255.
      255. 255. 255. 255. 255. 255. 255. 255. 255. 255. 255. 255. 255.
      255. 255. 255. 255. 255. 255. 255. 255. 255. 255. 255. 255. 255.
      255. 255. 255. 255. 255. 255. 161. 160. 160. 104. 104. 104. 244.
      244. 244. 237. 238. 238. 87. 87. 87. 189. 188. 189. 255. 255. 255.
      255. 255. 255. 255. 255. 255. 254. 254. 254. 99. 99. 99. 195. 195.
      195. 255. 255. 255. 255. 255. 255. 149. 149. 149. 128. 128. 128.
      255. 255. 255. 255. 255. 255. 255. 255. 255. 254. 254. 254. 99.
      99. 99. 195. 195. 195. 255. 255. 255. 255. 255. 255. 149. 149.
      149. 127. 127. 127. 255. 255. 255. 255. 255. 255. 255. 255. 255.
      254. 254. 254. 99. 99. 100. 171. 171. 171. 91. 91. 92. 82. 82. 82.
      135. 135. 135. 128. 128. 128. 255. 255. 255. 255. 255. 255. 255.
      255. 255. 255. 255. 255. 212. 211. 212. 51. 51. 51. 192. 192. 192.
      168. 168. 168. 39. 39. 39. 145. 145. 145. 234. 234. 234. 255. 255.
      255. 255. 255. 255. 255. 255. 255. 255. 255. 255. 255. 255. 255.
      255. 255. 255. 255. 255. 255. 255. 255. 255. 255. 255. 255. 255.
      255. 255. 255. 255. 255. 255. 255. 255. 255. 255. 255. 254. 254.
      254. 164. 164. 164. 91. 91. 91. 114. 114. 114. 241. 241. 241. 255.
      255. 255. 255. 255. 255. 255. 255. 255. 255. 255. 255. 255. 255.
      255. 250. 250. 250. 115. 115. 115. 55. 55. 55. 60. 60. 60. 219.
      219. 219. 255. 255. 255. 255. 255. 255. 255. 255. 255. 243. 243.
      243. 86. 86. 86. 50. 50. 50. 79. 79. 79. 39. 39. 39. 66. 66. 66.
      25. 25. 25. 32. 32. 32. 183. 182. 182. 255. 255. 255. 255. 255.
      255. 255. 255. 255. 255. 255. 255. 255. 255. 255. 255. 255. 255.
      255. 255. 255. 255. 255. 255. 255. 255. 255. 255. 255. 255. 255.
      255. 255. 254. 254. 254. 73. 73. 73. 191. 191. 191. 251. 251. 251.
      85. 85. 85. 187. 187. 187. 253. 253. 253. 185. 185. 185. 80. 80.
      80. 254. 254. 254. 254. 254. 254. 73. 73. 73. 191. 191. 191. 249.
      249. 249. 52. 52. 52. 255. 255. 255. 255. 255. 255. 252. 252. 252.
      46. 46. 46. 254. 254. 254. 254. 254. 254. 73. 73. 73. 191. 191.
      191. 249. 249. 249. 52. 52. 52. 255. 255. 255. 255. 255. 255. 251.
      251. 251. 46. 46. 46. 254. 254. 254. 253. 253. 253. 73. 73. 73.
      191. 191. 191. 249. 249. 249. 52. 52. 52. 254. 254. 254. 255. 255.
      255. 251. 251. 251. 46. 46. 46. 254. 254. 254. 253. 253. 253. 73.
      73. 73. 191. 191. 191. 254. 254. 254. 125. 125. 125. 107. 107.
      107. 219. 219. 219. 106. 106. 106. 122. 122. 122. 255. 255. 255.
      255. 255. 255. 255. 255. 255. 255. 255. 255. 255. 255. 255. 255.
      255. 255. 255. 255. 255. 255. 255. 255. 255. 255. 255. 255. 255.
      255. 255. 255. 255. 255. 255. 255. 255. 255. 255. 254. 254. 254.
      165. 165. 165. 91. 91. 91. 114. 114. 114. 241. 241. 241. 255. 255.
      255. 255. 255. 255. 255. 255. 255. 255. 255. 255. 255. 255. 255.
      250. 250. 250. 116. 116. 116. 56. 56. 56. 61. 61. 61. 219. 219.
      219. 255. 255. 255. 255. 255. 255. 255. 255. 255. 243. 243. 243.
      86. 86. 86. 50. 50. 50. 79. 79. 79. 39. 39. 39. 66. 66. 66. 25.
      25. 25. 33. 33. 33. 182. 182. 182. 255. 255. 255. 255. 255. 255.
      255. 255. 255. 255. 255. 255. 255. 255. 255. 255. 255. 255. 255.
      255. 255. 255. 255. 255. 255. 255. 255. 255. 255. 255. 255. 255.
      255. 255. 255. 255. 239. 239. 251. 43. 37. 211. 184. 182. 240.
      245. 244. 253. 250. 250. 254. 218. 217. 247. 70. 66. 217. 175.
      173. 239. 255. 255. 255. 255. 255. 255. 248. 248. 253. 187. 185.
      241. 253. 253. 254. 255. 255. 255. 255. 255. 255. 248. 248. 254.
      72. 67. 218. 141. 138. 232. 255. 255. 255. 255. 255. 255. 255.
      255. 255. 255. 255. 255. 255. 255. 255. 222. 222. 248. 65. 60.
      216. 49. 43. 213. 216. 215. 247. 255. 255. 255. 255. 255. 255.
      255. 255. 255. 255. 255. 255. 210. 209. 245. 23. 16. 208. 108.
      104. 225. 254. 254. 254. 255. 255. 255. 255. 255. 255. 255. 255.
      255. 255. 255. 255. 255. 255. 255. 234. 234. 250. 27. 20. 208.
      195. 194. 243. 216. 215. 247. 216. 215. 247. 216. 215. 247. 128.
      125. 229. 101. 97. 224. 255. 255. 255. 255. 255. 255. 255. 255.
      255. 255. 255. 255. 255. 255. 255. 255. 255. 255. 255. 255. 255.
      255. 255. 255. 255. 255. 255. 255. 255. 255. 255. 255. 255. 255.
      255. 255. 255. 255. 255. 255. 255. 255. 255. 255. 255. 106. 94.
      249. 236. 235. 254. 255. 255. 255. 255. 255. 255. 255. 255. 255.
      255. 255. 255. 255. 255. 255. 255. 255. 255. 232. 231. 253. 45.
      32. 235. 14. 0. 229. 21. 8. 229. 193. 189. 248. 255. 255. 255.
      255. 255. 255. 255. 255. 255. 244. 243. 253. 61. 50. 233. 11. 0.
      222. 9. 0. 213. 8. 0. 208. 7. 0. 205. 7. 0. 206. 16. 8. 212. 191.
      189. 245. 255. 255. 255. 255. 255. 255. 255. 255. 255. 255. 255.
      255. 255. 255. 255. 255. 255. 255. 255. 255. 255. 255. 255. 255.
      255. 255. 255. 255. 255. 255. 255. 255. 255. 254. 254. 255. 51.
      45. 213. 182. 181. 240. 255. 255. 255. 255. 255. 255. 212. 212.
      246. 37. 31. 211. 166. 165. 236. 254. 254. 255. 255. 255. 255.
      255. 255. 255. 255. 255. 255. 255. 255. 255. 191. 188. 242. 27.
      20. 208. 23. 18. 207. 146. 143. 233. 238. 237. 252. 255. 255. 255.
      255. 255. 255. 255. 255. 255. 255. 255. 255. 255. 255. 255. 255.
      255. 255. 255. 255. 255. 255. 255. 255. 253. 253. 255. 143. 141.
      232. 68. 63. 217. 255. 255. 255. 248. 248. 254. 205. 204. 245.
      241. 241. 252. 255. 255. 255. 255. 255. 255. 255. 255. 255. 255.
      255. 255. 227. 226. 249. 35. 29. 209. 254. 254. 255. 254. 254.
      255. 203. 201. 244. 29. 23. 209. 82. 77. 220. 190. 189. 241. 174.
      171. 238. 63. 58. 215. 54. 47. 213. 238. 237. 251. 255. 255. 255.
      255. 255. 255. 255. 255. 255. 255. 255. 255. 255. 255. 255. 255.
      255. 255. 255. 255. 255. 255. 255. 255. 255. 255. 255. 255. 255.
      255. 255. 255. 255. 255. 255. 255. 255. 255. 255. 255. 255. 255.
      255. 255. 255. 105. 94. 249. 237. 235. 255. 255. 255. 255. 255.
      255. 255. 255. 255. 255. 255. 255. 255. 255. 255. 255. 255. 255.
      255. 232. 230. 253. 45. 31. 236. 14. 0. 229. 21. 8. 229. 192. 189.
      249. 255. 255. 255. 255. 255. 255. 255. 255. 255. 244. 243. 254.
      59. 49. 234. 11. 0. 222. 9. 0. 213. 8. 0. 208. 7. 0. 205. 7. 0.
      206. 17. 9. 211. 190. 188. 244. 255. 255. 255. 255. 255. 255. 255.
      255. 255. 255. 255. 255. 255. 255. 255. 255. 255. 255. 255. 255.
      255. 255. 255. 255. 255. 255. 255. 255. 255. 255. 255. 255. 255.
      255. 255. 255. 255. 255. 255. 255. 255. 255. 255. 255. 255. 165.
      163. 237. 8. 1. 204. 125. 122. 228. 255. 255. 255. 255. 255. 255.
      255. 255. 255. 255. 255. 255. 255. 255. 255. 253. 253. 255. 114.
      110. 226. 68. 63. 217. 107. 104. 225. 125. 122. 228. 255. 255.
      255. 255. 255. 255. 255. 255. 255. 255. 255. 255. 250. 250. 254.
      84. 79. 220. 125. 121. 229. 254. 254. 255. 112. 108. 226. 125.
      122. 228. 255. 255. 255. 255. 255. 255. 255. 255. 255. 253. 253.
      255. 52. 47. 214. 7. 0. 204. 7. 0. 204. 7. 0. 204. 7. 0. 204. 7.
      0. 204. 11. 4. 205. 245. 245. 253. 255. 255. 255. 255. 255. 255.
      255. 255. 255. 255. 255. 255. 255. 255. 255. 232. 231. 250. 96.
      91. 222. 107. 102. 225. 233. 232. 250. 255. 255. 255. 255. 255.
      255. 255. 255. 255. 255. 255. 255. 255. 255. 255. 255. 255. 255.
      255. 255. 255. 255. 255. 255. 255. 255. 255. 255. 255. 255. 255.
      255. 255. 255. 255. 255. 255. 255. 255. 255. 255. 255. 255. 255.
      255. 255. 255. 255. 105. 93. 248. 236. 235. 254. 255. 255. 255.
      255. 255. 255. 255. 255. 255. 255. 255. 255. 255. 255. 255. 255.
      255. 255. 232. 230. 253. 44. 32. 235. 14. 0. 229. 21. 8. 229. 192.
      189. 249. 255. 255. 255. 255. 255. 255. 255. 255. 255. 244. 243.
      254. 59. 49. 234. 11. 0. 222. 9. 0. 213. 7. 0. 208. 7. 0. 204. 7.
      0. 206. 16. 8. 212. 190. 188. 243. 255. 255. 255. 255. 255. 255.
      255. 255. 255. 255. 255. 255. 255. 255. 255. 255. 255. 255. 255.
      255. 255. 255. 255. 255. 255. 255. 255. 255. 255. 255. 255. 255.
      255. 255. 255. 255. 254. 254. 255. 80. 75. 219. 187. 185. 241.
      255. 255. 255. 255. 255. 255. 255. 255. 255. 255. 255. 255. 255.
      255. 255. 255. 255. 255. 255. 255. 255. 254. 254. 255. 80. 75.
      219. 103. 99. 223. 114. 110. 226. 131. 128. 230. 205. 204. 243.
      255. 255. 255. 255. 255. 255. 255. 255. 255. 255. 255. 255. 255.
      255. 255. 213. 212. 246. 230. 230. 250. 255. 255. 255. 255. 255.
      255. 227. 226. 249. 33. 26. 209. 193. 192. 242. 255. 255. 255.
      255. 255. 255. 255. 255. 255. 253. 253. 255. 255. 255. 255. 255.
      255. 255. 255. 255. 255. 254. 254. 255. 133. 130. 230. 112. 108.
      225. 255. 255. 255. 255. 255. 255. 235. 234. 251. 45. 39. 212. 80.
      77. 218. 195. 194. 243. 175. 173. 238. 43. 37. 211. 100. 96. 223.
      252. 251. 254. 255. 255. 255. 255. 255. 255. 255. 255. 255. 255.
      255. 255. 255. 255. 255. 255. 255. 255. 255. 255. 255. 255. 255.
      255. 255. 255. 255. 255. 255. 255. 255. 255. 255. 255. 255. 255.
      255. 255. 255. 255. 255. 255. 255. 255. 255. 105. 94. 248. 236.
      235. 254. 255. 255. 255. 255. 255. 255. 255. 255. 255. 255. 255.
      255. 255. 255. 255. 255. 255. 255. 232. 230. 253. 43. 31. 236. 14.
      0. 228. 22. 9. 229. 192. 189. 248. 255. 255. 255. 255. 255. 255.
      255. 255. 255. 244. 243. 254. 62. 51. 234. 11. 0. 221. 9. 0. 213.
      8. 0. 208. 7. 0. 205. 7. 0. 206. 17. 9. 211. 190. 188. 244. 255.
      255. 255. 255. 255. 255. 255. 255. 255. 255. 255. 255. 255. 255.
      255. 255. 255. 255. 255. 255. 255. 255. 255. 255. 255. 255. 255.
      255. 255. 255. 255. 255. 255. 255. 255. 255. 241. 240. 252. 39.
      33. 210. 122. 118. 227. 240. 240. 252. 235. 235. 251. 89. 85. 221.
      64. 59. 216. 250. 250. 254. 255. 255. 255. 254. 254. 255. 93. 88.
      221. 87. 83. 221. 208. 206. 245. 126. 122. 229. 127. 123. 229.
      230. 229. 250. 255. 255. 255. 255. 255. 255. 255. 255. 255. 254.
      254. 255. 50. 44. 213. 14. 6. 205. 172. 169. 237. 255. 255. 255.
      254. 254. 255. 132. 129. 229. 82. 77. 220. 252. 252. 254. 255.
      255. 255. 254. 254. 255. 117. 113. 227. 35. 29. 210. 250. 250.
      253. 255. 255. 255. 255. 255. 255. 236. 236. 251. 13. 6. 205. 245.
      244. 252. 255. 255. 255. 255. 255. 255. 251. 251. 254. 93. 89.
      222. 33. 27. 209. 188. 186. 241. 167. 165. 236. 32. 26. 209. 177.
      174. 239. 255. 255. 255. 255. 255. 255. 255. 255. 255. 255. 255.
      255. 255. 255. 255. 255. 255. 255. 255. 255. 255. 255. 255. 255.
      255. 255. 255. 255. 255. 255. 255. 255. 255. 255. 255. 255. 255.
      255. 255. 255. 255. 255. 255. 255. 255. 255. 255. 255. 105. 93.
      248. 237. 235. 255. 255. 255. 255. 255. 255. 255. 255. 255. 255.
      255. 255. 255. 255. 255. 255. 255. 255. 255. 231. 230. 253. 43.
      30. 236. 14. 0. 229. 22. 9. 229. 192. 189. 249. 255. 255. 255.
      255. 255. 255. 255. 255. 255. 244. 244. 254. 61. 51. 235. 11. 0.
      221. 9. 0. 213. 7. 0. 208. 6. 0. 204. 7. 0. 206. 17. 9. 211. 190.
      188. 243. 255. 255. 255. 255. 255. 255. 255. 255. 255. 255. 255.
      255. 255. 255. 255. 255. 255. 255. 255. 255. 255. 255. 255. 255.
      255. 255. 255. 255. 255. 255. 255. 255. 255. 254. 254. 255. 51.
      45. 213. 182. 180. 240. 255. 255. 255. 255. 255. 255. 255. 255.
      255. 172. 169. 238. 20. 14. 207. 219. 218. 248. 255. 255. 255.
      255. 255. 255. 255. 255. 255. 255. 255. 255. 255. 255. 255. 254.
      254. 255. 152. 149. 234. 46. 40. 212. 248. 248. 254. 255. 255.
      255. 255. 255. 255. 255. 255. 255. 255. 255. 255. 255. 255. 255.
      255. 255. 255. 174. 172. 238. 33. 27. 209. 248. 248. 253. 255.
      255. 255. 255. 255. 255. 255. 255. 255. 255. 255. 255. 255. 255.
      255. 255. 255. 255. 246. 246. 254. 34. 28. 210. 195. 192. 242.
      255. 255. 255. 255. 255. 255. 255. 255. 255. 255. 255. 255. 255.
      255. 255. 255. 255. 255. 254. 254. 255. 118. 115. 228. 58. 52.
      214. 254. 254. 255. 255. 255. 255. 255. 255. 255. 255. 255. 255.
      255. 255. 255. 255. 255. 255. 255. 255. 255. 255. 255. 255. 255.
      255. 255. 255. 255. 255. 255. 255. 255. 255. 255. 255. 255. 255.
      255. 255. 255. 255. 255. 255. 255. 255. 255. 255. 255. 255. 255.
      255. 255. 255. 255. 255. 255. 105. 93. 248. 236. 235. 254. 255.
      255. 255. 255. 255. 255. 255. 255. 255. 255. 255. 255. 255. 255.
      255. 255. 255. 255. 232. 230. 253. 43. 31. 236. 14. 0. 229. 22. 9.
      229. 193. 190. 247. 255. 255. 255. 255. 255. 255. 255. 255. 255.
      244. 243. 254. 61. 50. 235. 11. 0. 222. 9. 0. 213. 7. 0. 207. 7.
      0. 204. 7. 0. 206. 17. 9. 211. 190. 188. 244. 255. 255. 255. 255.
      255. 255. 255. 255. 255. 255. 255. 255. 255. 255. 255. 255. 255.
      255. 255. 255. 255. 255. 255. 255. 255. 255. 255. 255. 255. 255.
      255. 255. 255. 255. 255. 255. 245. 245. 254. 61. 56. 215. 161.
      159. 236. 248. 248. 254. 245. 245. 253. 133. 129. 230. 67. 62.
      217. 250. 250. 254. 255. 255. 255. 255. 255. 255. 237. 236. 251.
      38. 32. 211. 221. 220. 248. 255. 255. 255. 255. 255. 255. 197.
      195. 243. 30. 23. 209. 247. 247. 253. 255. 255. 255. 255. 255.
      255. 236. 236. 251. 51. 45. 213. 36. 30. 210. 97. 93. 222. 94. 90.
      222. 29. 22. 208. 64. 59. 216. 244. 244. 252. 255. 255. 255. 253.
      253. 255. 55. 49. 214. 168. 166. 237. 255. 255. 255. 255. 255.
      255. 255. 255. 255. 254. 254. 255. 141. 139. 231. 105. 101. 224.
      255. 255. 255. 255. 255. 255. 240. 239. 253. 53. 48. 214. 77. 72.
      219. 192. 190. 242. 185. 183. 241. 61. 55. 215. 66. 61. 216. 246.
      246. 253. 255. 255. 255. 255. 255. 255. 255. 255. 255. 255. 255.
      255. 255. 255. 255. 255. 255. 255. 255. 255. 255. 255. 255. 255.
      255. 255. 255. 255. 255. 255. 255. 255. 255. 255. 255. 255. 255.
      255. 255. 255. 255. 255. 255. 255. 255. 105. 94. 249. 236. 235.
      254. 255. 255. 255. 255. 255. 255. 255. 255. 255. 255. 255. 255.
      255. 255. 255. 255. 255. 255. 232. 230. 253. 44. 31. 235. 14. 0.
      229. 22. 9. 229. 192. 189. 248. 255. 255. 255. 255. 255. 255. 255.
      255. 255. 244. 243. 254. 61. 50. 235. 11. 0. 222. 9. 0. 213. 7. 0.
      207. 7. 0. 204. 7. 0. 206. 16. 8. 212. 191. 189. 243. 255. 255.
      255. 255. 255. 255. 255. 255. 255. 255. 255. 255. 255. 255. 255.
      255. 255. 255. 255. 255. 255. 255. 255. 255. 255. 255. 255. 255.
      255. 255. 255. 255. 255. 255. 255. 255. 207. 206. 247. 31. 25.
      209. 204. 202. 244. 250. 249. 254. 180. 179. 239. 16. 10. 206.
      178. 176. 239. 255. 255. 255. 255. 255. 255. 254. 254. 255. 53.
      48. 214. 172. 169. 238. 255. 255. 255. 255. 255. 255. 255. 255.
      255. 189. 187. 241. 33. 27. 210. 247. 247. 253. 255. 255. 255.
      255. 255. 255. 221. 221. 249. 38. 32. 210. 189. 187. 241. 246.
      245. 253. 191. 189. 242. 27. 20. 208. 11. 4. 205. 244. 244. 252.
      255. 255. 255. 255. 255. 255. 255. 255. 255. 255. 255. 255. 255.
      255. 255. 248. 248. 254. 255. 255. 255. 185. 183. 241. 47. 41.
      213. 249. 249. 254. 255. 255. 255. 255. 255. 255. 211. 211. 246.
      26. 20. 208. 114. 110. 226. 201. 200. 244. 80. 75. 219. 27. 21.
      208. 223. 222. 249. 255. 255. 255. 255. 255. 255. 255. 255. 255.
      255. 255. 255. 255. 255. 255. 255. 255. 255. 255. 255. 255. 255.
      255. 255. 255. 255. 255. 255. 255. 255. 255. 255. 255. 255. 255.
      255. 255. 255. 255. 255. 255. 255. 255. 255. 255. 255. 255. 255.
      105. 94. 249. 237. 235. 255. 255. 255. 255. 255. 255. 255. 255.
      255. 255. 255. 255. 255. 255. 255. 255. 255. 255. 255. 232. 230.
      253. 45. 31. 236. 14. 0. 228. 21. 8. 229. 192. 189. 248. 255. 255.
      255. 255. 255. 255. 255. 255. 255. 244. 243. 254. 59. 48. 233. 11.
      0. 222. 9. 0. 213. 7. 0. 207. 7. 0. 204. 7. 0. 206. 17. 9. 211.
      191. 189. 243. 255. 255. 255. 255. 255. 255. 255. 255. 255. 255.
      255. 255. 255. 255. 255. 255. 255. 255. 255. 255. 255. 255. 255.
      255. 255. 255. 255. 255. 255. 255. 255. 255. 255. 255. 255. 255.
      255. 255. 255. 254. 254. 254. 199. 198. 243. 7. 0. 204. 11. 4.
      205. 214. 213. 246. 255. 255. 255. 255. 255. 255. 255. 255. 255.
      255. 255. 255. 255. 255. 255. 250. 249. 254. 64. 59. 216. 67. 61.
      216. 54. 48. 213. 102. 98. 224. 255. 255. 255. 255. 255. 255. 255.
      255. 255. 255. 255. 255. 255. 255. 255. 215. 214. 247. 9. 3. 204.
      176. 170. 239. 152. 147. 233. 17. 10. 207. 239. 239. 252. 255.
      255. 255. 255. 255. 255. 255. 255. 255. 254. 254. 255. 94. 90.
      220. 7. 0. 204. 7. 0. 204. 7. 0. 204. 7. 0. 204. 115. 112. 225.
      255. 255. 255. 255. 255. 255. 248. 248. 254. 201. 200. 244. 22.
      14. 207. 146. 142. 233. 255. 255. 255. 253. 253. 255. 100. 97.
      223. 25. 17. 208. 210. 209. 245. 255. 255. 255. 255. 255. 255.
      255. 255. 255. 255. 255. 255. 255. 255. 255. 255. 255. 255. 255.
      255. 255. 255. 255. 255. 255. 255. 255. 255. 255. 255. 255. 255.
      255. 255. 255. 255. 255. 255. 255. 255. 255. 255. 255. 255. 255.
      104. 93. 248. 237. 235. 255. 255. 255. 255. 255. 255. 255. 255.
      255. 255. 255. 255. 255. 255. 255. 255. 255. 255. 255. 232. 230.
      253. 44. 31. 236. 14. 0. 229. 21. 8. 229. 192. 188. 248. 255. 255.
      255. 255. 255. 255. 255. 255. 255. 245. 244. 254. 60. 49. 235. 11.
      0. 222. 9. 0. 213. 7. 0. 207. 7. 0. 204. 7. 0. 206. 16. 8. 212.
      191. 189. 244. 255. 255. 255. 255. 255. 255. 255. 255. 255. 255.
      255. 255. 255. 255. 255. 255. 255. 255. 255. 255. 255. 255. 255.
      255. 255. 255. 255. 255. 255. 255. 255. 255. 255. 255. 255. 255.
      255. 255. 255. 255. 255. 255. 255. 255. 255. 255. 255. 255. 255.
      255. 255. 136. 133. 231. 112. 107. 225. 255. 255. 255. 255. 255.
      255. 255. 255. 255. 255. 255. 255. 255. 255. 255. 255. 255. 255.
      255. 255. 255. 255. 255. 255. 137. 133. 231. 112. 108. 226. 255.
      255. 255. 255. 255. 255. 255. 255. 255. 255. 255. 255. 255. 255.
      255. 255. 255. 255. 255. 255. 255. 255. 255. 255. 136. 133. 231.
      112. 107. 225. 255. 255. 255. 255. 255. 255. 255. 255. 255. 254.
      254. 255. 80. 76. 220. 186. 184. 241. 255. 255. 255. 255. 255.
      255. 134. 131. 231. 112. 107. 225. 255. 255. 255. 255. 255. 255.
      255. 255. 255. 255. 255. 255. 211. 211. 246. 25. 19. 208. 144.
      142. 234. 154. 153. 233. 33. 27. 212. 236. 236. 252. 255. 255.
      255. 255. 255. 255. 255. 255. 255. 255. 255. 255. 255. 255. 255.
      255. 255. 255. 255. 255. 255. 255. 255. 255. 255. 255. 255. 255.
      255. 255. 255. 255. 255. 255. 255. 255. 255. 255. 255. 255. 255.
      255. 255. 255. 255. 255. 255. 255. 105. 97. 243. 236. 235. 253.
      255. 255. 255. 255. 255. 255. 255. 255. 255. 255. 255. 255. 255.
      255. 255. 255. 255. 255. 232. 230. 253. 43. 32. 236. 12. 2. 227.
      21. 10. 228. 192. 189. 249. 255. 255. 255. 255. 255. 255. 255.
      255. 255. 244. 243. 253. 61. 51. 234. 11. 0. 222. 7. 1. 212. 5. 1.
      207. 4. 0. 205. 4. 0. 206. 15. 10. 212. 189. 188. 244. 255. 255.
      255. 255. 255. 255. 255. 255. 255. 255. 255. 255. 255. 255. 255.
      255. 255. 255. 255. 255. 255. 255. 255. 255. 255. 255. 255. 255.
      255. 255. 255. 255. 255. 255. 255. 255. 252. 252. 255. 76. 71.
      218. 187. 185. 241. 255. 255. 255. 252. 252. 255. 84. 78. 221.
      113. 109. 226. 253. 253. 255. 255. 255. 255. 255. 255. 255. 253.
      253. 255. 76. 71. 218. 187. 185. 241. 174. 172. 239. 17. 10. 207.
      199. 198. 244. 255. 255. 255. 255. 255. 255. 255. 255. 255. 255.
      255. 255. 252. 252. 255. 75. 70. 218. 11. 4. 204. 67. 61. 217. 47.
      42. 213. 248. 248. 253. 255. 255. 255. 255. 255. 255. 255. 255.
      255. 255. 255. 255. 253. 253. 255. 76. 71. 218. 187. 185. 241.
      255. 255. 255. 180. 178. 241. 41. 35. 213. 247. 246. 254. 255.
      255. 255. 255. 255. 255. 254. 254. 255. 221. 221. 248. 65. 60.
      216. 159. 157. 235. 239. 239. 252. 233. 232. 251. 147. 144. 234.
      29. 23. 208. 211. 210. 245. 255. 255. 255. 255. 255. 255. 255.
      255. 255. 255. 255. 255. 255. 255. 255. 255. 255. 255. 255. 255.
      255. 255. 255. 255. 255. 255. 255. 255. 255. 255. 255. 255. 255.
      255. 255. 255. 255. 255. 255. 255. 255. 255. 255. 255. 255. 105.
      96. 246. 238. 237. 252. 255. 255. 255. 255. 255. 255. 255. 255.
      255. 255. 255. 255. 255. 255. 255. 255. 255. 255. 233. 231. 253.
      43. 31. 236. 12. 0. 229. 20. 10. 229. 195. 192. 249. 255. 255.
      255. 255. 255. 255. 255. 255. 255. 244. 243. 254. 63. 52. 236. 7.
      0. 222. 7. 0. 214. 5. 0. 208. 7. 1. 205. 6. 0. 206. 15. 9. 213.
      190. 188. 244. 255. 255. 255. 255. 255. 255. 255. 255. 255. 255.
      255. 255. 255. 255. 255. 255. 255. 255. 255. 255. 255. 255. 255.
      255. 255. 255. 255. 255. 255. 255. 255. 255. 255. 255. 255. 255.
      255. 255. 255. 149. 145. 234. 88. 84. 221. 243. 243. 253. 235.
      235. 251. 68. 62. 215. 181. 178. 241. 255. 255. 255. 255. 255.
      255. 255. 255. 255. 254. 254. 255. 81. 75. 219. 187. 185. 241.
      255. 255. 255. 255. 255. 255. 138. 133. 231. 111. 108. 226. 255.
      255. 255. 255. 255. 255. 255. 255. 255. 254. 254. 255. 80. 75.
      219. 187. 185. 241. 255. 255. 255. 255. 255. 255. 138. 133. 231.
      111. 107. 225. 255. 255. 255. 255. 255. 255. 255. 255. 255. 254.
      254. 255. 81. 76. 220. 161. 159. 238. 72. 66. 218. 62. 56. 217.
      121. 117. 227. 112. 108. 226. 255. 255. 255. 255. 255. 255. 255.
      255. 255. 255. 255. 255. 206. 204. 246. 27. 21. 208. 184. 182.
      241. 160. 158. 234. 12. 5. 205. 131. 126. 231. 231. 231. 250. 255.
      255. 255. 255. 255. 255. 255. 255. 255. 255. 255. 255. 255. 255.
      255. 255. 255. 255. 255. 255. 255. 255. 255. 255. 255. 255. 255.
      255. 255. 255. 255. 255. 255. 255. 255. 255. 255. 255. 255. 255.
      255. 255. 255. 255. 255. 101. 96. 246. 236. 236. 253. 255. 255.
      255. 255. 255. 255. 255. 255. 255. 255. 255. 255. 255. 255. 255.
      255. 255. 255. 232. 231. 252. 44. 32. 234. 13. 0. 228. 20. 8. 229.
      192. 189. 248. 255. 255. 255. 255. 255. 255. 255. 255. 255. 244.
      243. 253. 58. 48. 234. 11. 0. 222. 5. 0. 214. 6. 0. 207. 7. 0.
      206. 6. 0. 207. 15. 8. 211. 189. 187. 244. 255. 255. 255. 255.
      255. 255. 255. 255. 255. 255. 255. 255. 255. 255. 255. 255. 255.
      255. 255. 255. 255. 255. 255. 255. 255. 255. 255. 255. 255. 255.
      255. 255. 255. 254. 254. 255. 51. 45. 213. 183. 181. 240. 251.
      251. 254. 63. 59. 214. 178. 176. 239. 253. 253. 255. 177. 175.
      239. 60. 54. 215. 254. 254. 255. 254. 254. 255. 52. 46. 213. 183.
      181. 240. 249. 248. 253. 27. 20. 208. 255. 255. 255. 255. 255.
      255. 252. 251. 254. 20. 14. 207. 254. 254. 255. 254. 254. 255. 51.
      45. 213. 183. 181. 240. 249. 248. 253. 26. 20. 208. 255. 255. 255.
      255. 255. 255. 251. 251. 254. 20. 13. 207. 254. 254. 255. 253.
      253. 255. 52. 46. 213. 183. 181. 240. 249. 248. 253. 27. 21. 208.
      254. 254. 254. 255. 255. 255. 251. 251. 254. 20. 14. 207. 254.
      254. 255. 253. 253. 255. 52. 46. 213. 183. 181. 240. 254. 254.
      255. 109. 105. 225. 88. 83. 221. 214. 213. 247. 88. 83. 221. 106.
      102. 224. 255. 255. 255. 255. 255. 255. 255. 255. 255. 255. 255.
      255. 255. 255. 255. 255. 255. 255. 255. 255. 255. 255. 255. 255.
      255. 255. 255. 255. 255. 255. 255. 255. 255. 255. 255. 255. 255.
      255. 255. 255. 255. 255. 255. 255. 255. 105. 94. 248. 237. 236.
      253. 255. 255. 255. 255. 255. 255. 255. 255. 255. 255. 255. 255.
      255. 255. 255. 255. 255. 255. 232. 230. 253. 43. 31. 236. 14. 0.
      229. 22. 9. 229. 192. 189. 248. 255. 255. 255. 255. 255. 255. 255.
      255. 255. 244. 243. 254. 61. 50. 234. 11. 0. 222. 9. 0. 213. 8. 0.
      208. 7. 0. 205. 7. 0. 206. 17. 9. 211. 191. 189. 244. 255. 255.
      255. 36. 105. 8. 37. 105. 8. 36. 105. 8. 37. 106. 8. 36. 106. 8.
      36. 105. 8. 36. 104. 8. 36. 106. 8. 37. 106. 8. 37. 106. 8. 37.
      106. 8. 37. 106. 8. 36. 105. 8. 36. 105. 8. 36. 104. 8. 36. 105.
      8. 36. 105. 8. 37. 106. 8. 36. 105. 8. 37. 106. 8. 37. 106. 8. 36.
      106. 8. 36. 105. 8. 36. 105. 8. 36. 104. 8. 37. 106. 8. 37. 106.
      8. 37. 106. 8. 36. 106. 8. 37. 106. 8. 36. 104. 7. 36. 105. 8. 36.
      105. 8. 36. 106. 8. 36. 105. 8. 36. 104. 8. 36. 104. 8. 36. 104.
      7. 36. 103. 8. 35. 103. 7. 36. 105. 8. 37. 106. 8. 37. 106. 8. 36.
      106. 8. 36. 106. 8. 36. 104. 8. 36. 104. 8. 36. 104. 8. 36. 105.
      8. 36. 105. 8. 46. 115. 17. 49. 119. 20. 48. 118. 20. 48. 117. 20.
      44. 113. 15. 36. 106. 8. 37. 107. 8. 36. 105. 8. 37. 106. 8. 39.
      108. 11. 48. 117. 20. 48. 117. 19. 41. 110. 13. 37. 106. 8. 36.
      106. 8. 36. 105. 8. 36. 105. 8. 36. 106. 8. 36. 105. 8. 39. 108.
      11. 41. 110. 12. 36. 105. 8. 36. 105. 8. 36. 105. 8. 36. 105. 8.
      36. 105. 8. 36. 104. 8. 36. 104. 8. 36. 105. 8. 39. 106. 10. 46.
      114. 18. 37. 106. 9. 36. 105. 8. 36. 104. 8. 36. 104. 8. 36. 104.
      8. 36. 105. 8. 36. 105. 8. 36. 105. 8. 39. 108. 11. 48. 117. 20.
      48. 117. 20. 43. 111. 14. 37. 106. 8. 37. 107. 8. 36. 106. 8. 36.
      105. 8. 36. 104. 8. 36. 104. 7. 39. 108. 11. 255. 255. 255. 255.
      255. 255. 255. 255. 255. 255. 255. 255. 255. 255. 255. 255. 255.
      255. 255. 255. 255. 255. 255. 255. 255. 255. 255. 255. 255. 255.
      255. 255. 255. 239. 239. 251. 43. 38. 211. 184. 182. 241. 245.
      244. 253. 250. 250. 254. 219. 218. 247. 72. 67. 218. 175. 173.
      238. 255. 255. 255. 255. 255. 255. 248. 248. 253. 187. 185. 241.
      253. 253. 254. 255. 255. 255. 255. 255. 255. 248. 248. 254. 72.
      68. 217. 141. 138. 232. 255. 255. 255. 255. 255. 255. 255. 255.
      255. 255. 255. 255. 255. 255. 255. 223. 221. 248. 65. 60. 216. 49.
      43. 213. 215. 214. 247. 255. 255. 255. 255. 255. 255. 255. 255.
      255. 255. 255. 255. 210. 210. 246. 23. 16. 208. 108. 104. 225.
      253. 253. 255. 255. 255. 255. 255. 255. 255. 255. 255. 255. 255.
      255. 255. 255. 255. 255. 234. 234. 250. 27. 20. 208. 195. 194.
      243. 216. 215. 247. 216. 215. 247. 216. 215. 247. 128. 125. 229.
      101. 97. 224. 255. 255. 255. 255. 255. 255. 255. 255. 255. 255.
      255. 255. 255. 255. 255. 255. 255. 255. 255. 255. 255. 255. 255.
      255. 255. 255. 255. 255. 255. 255. 255. 255. 255. 255. 255. 255.
      252. 252. 255. 237. 236. 255. 240. 239. 255. 255. 255. 255. 247.
      247. 255. 235. 234. 255. 246. 245. 255. 255. 255. 255. 255. 255.
      255. 224. 222. 255. 24. 6. 249. 17. 0. 242. 16. 0. 238. 46. 34.
      237. 15. 0. 233. 15. 0. 236. 17. 0. 241. 128. 118. 249. 255. 255.
      255. 246. 245. 254. 55. 43. 237. 11. 0. 224. 9. 0. 214. 7. 0. 207.
      7. 0. 206. 8. 0. 211. 16. 6. 220. 210. 208. 250. 255. 255. 255.
      255. 255. 255. 255. 255. 255. 255. 255. 255. 255. 255. 255. 255.
      255. 255. 255. 255. 255. 255. 255. 255. 255. 255. 255. 255. 255.
      255. 255. 255. 255. 254. 254. 255. 51. 45. 213. 182. 180. 240.
      255. 255. 255. 255. 255. 255. 213. 211. 247. 36. 30. 211. 166.
      165. 237. 254. 254. 255. 255. 255. 255. 255. 255. 255. 255. 255.
      255. 255. 255. 255. 190. 188. 242. 27. 20. 208. 23. 17. 207. 146.
      142. 233. 238. 237. 252. 255. 255. 255. 255. 255. 255. 255. 255.
      255. 255. 255. 255. 255. 255. 255. 255. 255. 255. 255. 255. 255.
      255. 255. 255. 253. 253. 254. 142. 139. 232. 69. 63. 217. 255.
      255. 255. 248. 248. 254. 205. 204. 245. 241. 241. 252. 255. 255.
      255. 255. 255. 255. 255. 255. 255. 255. 255. 255. 226. 225. 249.
      35. 30. 209. 254. 254. 255. 254. 254. 255. 203. 201. 244. 29. 23.
      209. 82. 77. 220. 191. 190. 241. 173. 172. 238. 63. 57. 215. 53.
      47. 214. 238. 236. 252. 255. 255. 255. 255. 255. 255. 255. 255.
      255. 255. 255. 255. 255. 255. 255. 255. 255. 255. 255. 255. 255.
      255. 255. 255. 255. 255. 255. 255. 255. 255. 255. 255. 255. 255.
      255. 255. 252. 252. 255. 237. 236. 255. 240. 239. 255. 255. 255.
      255. 247. 247. 255. 235. 234. 255. 245. 245. 255. 255. 255. 255.
      255. 255. 255. 225. 222. 255. 24. 6. 249. 17. 0. 243. 15. 0. 237.
      46. 33. 237. 15. 0. 233. 15. 1. 236. 16. 0. 240. 128. 118. 249.
      255. 255. 255. 246. 245. 254. 55. 43. 236. 11. 0. 222. 9. 0. 214.
      7. 0. 208. 7. 0. 206. 9. 0. 211. 16. 6. 219. 210. 208. 250. 255.
      255. 255. 255. 255. 255. 255. 255. 255. 255. 255. 255. 255. 255.
      255. 255. 255. 255. 255. 255. 255. 255. 255. 255. 255. 255. 255.
      255. 255. 255. 255. 255. 255. 255. 255. 255. 255. 255. 255. 255.
      255. 255. 255. 255. 255. 164. 162. 236. 7. 1. 204. 125. 122. 228.
      255. 255. 255. 255. 255. 255. 255. 255. 255. 255. 255. 255. 255.
      255. 255. 253. 253. 255. 114. 110. 226. 68. 62. 216. 107. 104.
      225. 125. 122. 228. 255. 255. 255. 255. 255. 255. 255. 255. 255.
      255. 255. 255. 250. 250. 254. 85. 81. 220. 126. 122. 229. 254.
      254. 255. 112. 108. 226. 125. 122. 228. 255. 255. 255. 255. 255.
      255. 255. 255. 255. 253. 253. 255. 53. 47. 214. 7. 0. 204. 7. 0.
      204. 7. 0. 204. 7. 0. 204. 7. 0. 204. 11. 4. 205. 245. 245. 253.
      255. 255. 255. 255. 255. 255. 255. 255. 255. 255. 255. 255. 255.
      255. 255. 232. 231. 250. 96. 91. 222. 107. 102. 225. 233. 232.
      250. 255. 255. 255. 255. 255. 255. 255. 255. 255. 255. 255. 255.
      255. 255. 255. 255. 255. 255. 255. 255. 255. 255. 255. 255. 255.
      255. 255. 255. 255. 255. 255. 255. 255. 255. 255. 255. 255. 255.
      255. 252. 252. 255. 237. 236. 255. 240. 239. 255. 255. 255. 255.
      247. 247. 255. 235. 234. 255. 245. 245. 255. 255. 255. 255. 255.
      255. 255. 224. 222. 254. 24. 6. 248. 17. 0. 242. 16. 0. 238. 46.
      33. 237. 15. 0. 234. 15. 0. 236. 17. 0. 241. 128. 118. 249. 255.
      255. 255. 246. 245. 254. 55. 43. 237. 12. 0. 224. 9. 0. 214. 7. 0.
      207. 7. 0. 206. 8. 0. 211. 16. 6. 220. 210. 208. 250. 255. 255.
      255. 255. 255. 255. 255. 255. 255. 255. 255. 255. 255. 255. 255.
      255. 255. 255. 255. 255. 255. 255. 255. 255. 255. 255. 255. 255.
      255. 255. 255. 255. 255. 255. 255. 255. 254. 254. 255. 80. 75.
      219. 188. 185. 241. 255. 255. 255. 255. 255. 255. 255. 255. 255.
      255. 255. 255. 255. 255. 255. 255. 255. 255. 255. 255. 255. 254.
      254. 255. 80. 75. 219. 104. 99. 223. 114. 110. 226. 132. 128. 230.
      203. 202. 243. 255. 255. 255. 255. 255. 255. 255. 255. 255. 255.
      255. 255. 255. 255. 255. 213. 212. 246. 230. 230. 250. 255. 255.
      255. 255. 255. 255. 226. 225. 250. 32. 25. 209. 193. 192. 242.
      255. 255. 255. 255. 255. 255. 255. 255. 255. 253. 253. 255. 255.
      255. 255. 255. 255. 255. 255. 255. 255. 254. 254. 255. 134. 131.
      230. 112. 108. 226. 255. 255. 255. 255. 255. 255. 234. 233. 251.
      45. 39. 212. 78. 75. 218. 195. 194. 243. 174. 173. 238. 42. 36.
      211. 100. 96. 223. 252. 251. 254. 255. 255. 255. 255. 255. 255.
      255. 255. 255. 255. 255. 255. 255. 255. 255. 255. 255. 255. 255.
      255. 255. 255. 255. 255. 255. 255. 255. 255. 255. 255. 255. 255.
      255. 255. 255. 255. 252. 252. 255. 237. 236. 255. 240. 239. 255.
      255. 255. 255. 247. 247. 255. 235. 234. 255. 245. 245. 255. 255.
      255. 255. 255. 255. 255. 225. 222. 255. 24. 6. 249. 17. 0. 242.
      16. 0. 238. 46. 34. 237. 15. 0. 234. 15. 0. 236. 17. 0. 241. 128.
      118. 249. 255. 255. 255. 246. 245. 254. 55. 43. 237. 11. 0. 222.
      9. 0. 213. 7. 0. 208. 7. 0. 206. 8. 0. 211. 16. 6. 219. 210. 208.
      250. 255. 255. 255. 255. 255. 255. 255. 255. 255. 255. 255. 255.
      255. 255. 255. 255. 255. 255. 255. 255. 255. 255. 255. 255. 255.
      255. 255. 255. 255. 255. 255. 255. 255. 255. 255. 255. 242. 242.
      252. 38. 32. 210. 122. 118. 227. 240. 240. 252. 235. 235. 251. 90.
      85. 222. 64. 58. 216. 250. 250. 254. 255. 255. 255. 254. 254. 255.
      93. 88. 222. 87. 83. 221. 208. 206. 245. 127. 122. 229. 127. 123.
      229. 228. 228. 249. 255. 255. 255. 255. 255. 255. 255. 255. 255.
      254. 254. 255. 50. 44. 213. 13. 6. 205. 173. 171. 238. 255. 255.
      255. 254. 254. 255. 132. 129. 229. 83. 77. 219. 252. 252. 254.
      255. 255. 255. 254. 254. 255. 118. 114. 227. 35. 29. 210. 250.
      250. 253. 255. 255. 255. 255. 255. 255. 236. 236. 251. 14. 7. 205.
      245. 244. 252. 255. 255. 255. 255. 255. 255. 251. 251. 254. 94.
      89. 222. 34. 28. 210. 189. 188. 241. 168. 166. 237. 32. 26. 209.
      177. 174. 239. 255. 255. 255. 255. 255. 255. 255. 255. 255. 255.
      255. 255. 255. 255. 255. 255. 255. 255. 255. 255. 255. 255. 255.
      255. 255. 255. 255. 255. 255. 255. 255. 255. 255. 255. 255. 255.
      255. 255. 255. 252. 252. 255. 237. 236. 255. 240. 239. 255. 255.
      255. 255. 247. 247. 255. 235. 234. 255. 246. 245. 255. 255. 255.
      255. 255. 255. 255. 225. 222. 255. 24. 6. 249. 17. 0. 242. 16. 0.
      238. 46. 34. 237. 15. 0. 233. 15. 0. 236. 16. 0. 240. 128. 118.
      249. 255. 255. 255. 246. 245. 254. 55. 43. 237. 11. 0. 222. 9. 0.
      214. 7. 0. 207. 7. 0. 206. 8. 0. 210. 16. 6. 219. 210. 208. 250.
      255. 255. 255. 255. 255. 255. 255. 255. 255. 255. 255. 255. 255.
      255. 255. 255. 255. 255. 255. 255. 255. 255. 255. 255. 255. 255.
      255. 255. 255. 255. 255. 255. 255. 254. 254. 255. 50. 45. 213.
      182. 180. 240. 255. 255. 255. 255. 255. 255. 255. 255. 255. 171.
      169. 238. 19. 13. 207. 219. 217. 248. 255. 255. 255. 255. 255.
      255. 255. 255. 255. 255. 255. 255. 255. 255. 255. 254. 254. 255.
      151. 149. 233. 45. 40. 212. 248. 248. 254. 255. 255. 255. 255.
      255. 255. 255. 255. 255. 255. 255. 255. 255. 255. 255. 255. 255.
      255. 174. 172. 238. 33. 27. 210. 247. 247. 253. 255. 255. 255.
      255. 255. 255. 255. 255. 255. 255. 255. 255. 255. 255. 255. 255.
      255. 255. 246. 246. 253. 34. 28. 210. 195. 192. 242. 255. 255.
      255. 255. 255. 255. 255. 255. 255. 255. 255. 255. 255. 255. 255.
      255. 255. 255. 254. 254. 255. 119. 115. 228. 59. 53. 215. 254.
      254. 255. 255. 255. 255. 255. 255. 255. 255. 255. 255. 255. 255.
      255. 255. 255. 255. 255. 255. 255. 255. 255. 255. 255. 255. 255.
      255. 255. 255. 255. 255. 255. 255. 255. 255. 255. 255. 255. 255.
      255. 255. 255. 255. 255. 255. 255. 255. 252. 252. 255. 237. 236.
      255. 239. 238. 255. 255. 255. 255. 247. 247. 255. 235. 234. 255.
      246. 245. 255. 255. 255. 255. 255. 255. 255. 225. 222. 255. 24. 6.
      249. 17. 0. 243. 16. 0. 238. 46. 34. 235. 15. 0. 234. 15. 0. 236.
      17. 0. 241. 128. 119. 249. 255. 255. 255. 246. 245. 254. 55. 43.
      237. 11. 0. 222. 9. 0. 214. 7. 0. 208. 7. 0. 206. 9. 0. 211. 16.
      6. 219. 210. 208. 248. 255. 255. 255. 255. 255. 255. 255. 255.
      255. 255. 255. 255. 255. 255. 255. 255. 255. 255. 255. 255. 255.
      255. 255. 255. 255. 255. 255. 255. 255. 255. 255. 255. 255. 255.
      255. 255. 245. 245. 254. 62. 56. 215. 162. 159. 236. 248. 248.
      254. 245. 245. 253. 133. 130. 230. 68. 63. 217. 250. 250. 254.
      255. 255. 255. 255. 255. 255. 237. 237. 252. 39. 33. 211. 221.
      221. 248. 255. 255. 255. 255. 255. 255. 197. 195. 243. 30. 23.
      209. 247. 247. 253. 255. 255. 255. 255. 255. 255. 236. 236. 251.
      51. 45. 213. 36. 30. 210. 97. 93. 222. 94. 90. 222. 29. 22. 208.
      64. 59. 216. 245. 245. 252. 255. 255. 255. 253. 253. 255. 55. 49.
      214. 167. 165. 238. 255. 255. 255. 255. 255. 255. 255. 255. 255.
      254. 254. 255. 142. 139. 231. 105. 101. 224. 255. 255. 255. 255.
      255. 255. 239. 239. 252. 53. 48. 214. 77. 72. 219. 192. 190. 243.
      186. 184. 241. 61. 55. 215. 67. 62. 216. 246. 246. 253. 255. 255.
      255. 255. 255. 255. 255. 255. 255. 255. 255. 255. 255. 255. 255.
      255. 255. 255. 255. 255. 255. 255. 255. 255. 255. 255. 255. 255.
      255. 255. 255. 255. 255. 255. 255. 255. 252. 252. 255. 237. 236.
      255. 240. 238. 255. 255. 255. 255. 247. 247. 255. 235. 234. 255.
      246. 245. 255. 255. 255. 255. 255. 255. 255. 224. 222. 255. 24. 6.
      249. 17. 0. 242. 16. 0. 238. 46. 34. 237. 15. 0. 233. 15. 0. 236.
      16. 0. 240. 129. 119. 249. 255. 255. 255. 246. 245. 254. 55. 43.
      237. 11. 0. 224. 9. 0. 213. 7. 0. 208. 7. 0. 206. 8. 0. 211. 16.
      6. 220. 210. 209. 248. 255. 255. 255. 255. 255. 255. 255. 255.
      255. 255. 255. 255. 255. 255. 255. 255. 255. 255. 255. 255. 255.
      255. 255. 255. 255. 255. 255. 255. 255. 255. 255. 255. 255. 255.
      255. 255. 208. 206. 246. 31. 25. 209. 204. 203. 245. 249. 249.
      254. 181. 178. 240. 17. 10. 206. 178. 175. 240. 255. 255. 255.
      255. 255. 255. 254. 254. 255. 53. 48. 214. 172. 169. 238. 255.
      255. 255. 255. 255. 255. 255. 255. 255. 188. 187. 241. 33. 26.
      209. 247. 247. 253. 255. 255. 255. 255. 255. 255. 221. 220. 248.
      38. 32. 211. 189. 186. 242. 246. 246. 253. 191. 189. 242. 27. 20.
      208. 11. 4. 205. 244. 244. 253. 255. 255. 255. 255. 255. 255. 255.
      255. 255. 255. 255. 255. 255. 255. 255. 248. 248. 254. 255. 255.
      255. 184. 183. 241. 47. 41. 213. 249. 249. 254. 255. 255. 255.
      255. 255. 255. 211. 209. 246. 26. 19. 208. 115. 110. 227. 201.
      200. 244. 80. 75. 219. 27. 21. 209. 223. 222. 249. 255. 255. 255.
      255. 255. 255. 255. 255. 255. 255. 255. 255. 255. 255. 255. 255.
      255. 255. 255. 255. 255. 255. 255. 255. 255. 255. 255. 255. 255.
      255. 255. 255. 255. 255. 255. 255. 255. 255. 255. 252. 252. 255.
      237. 236. 255. 240. 239. 255. 255. 255. 255. 247. 247. 255. 235.
      234. 255. 245. 245. 255. 255. 255. 255. 255. 255. 255. 225. 222.
      254. 24. 6. 248. 17. 0. 242. 16. 0. 237. 46. 34. 235. 15. 0. 233.
      15. 0. 236. 16. 0. 240. 128. 118. 249. 255. 255. 255. 246. 245.
      254. 55. 43. 236. 11. 0. 222. 9. 0. 213. 8. 0. 208. 8. 0. 206. 8.
      0. 211. 16. 6. 219. 210. 208. 250. 255. 255. 255. 255. 255. 255.
      255. 255. 255. 255. 255. 255. 255. 255. 255. 255. 255. 255. 255.
      255. 255. 255. 255. 255. 255. 255. 255. 255. 255. 255. 255. 255.
      255. 255. 255. 255. 255. 255. 255. 254. 254. 254. 197. 196. 243.
      7. 0. 204. 10. 3. 205. 213. 212. 246. 255. 255. 255. 255. 255.
      255. 255. 255. 255. 255. 255. 255. 255. 255. 255. 250. 250. 253.
      64. 58. 215. 65. 60. 217. 56. 50. 214. 103. 98. 223. 255. 255.
      255. 255. 255. 255. 255. 255. 255. 255. 255. 255. 255. 255. 255.
      216. 215. 248. 9. 2. 205. 176. 172. 239. 151. 147. 234. 15. 9.
      206. 239. 239. 252. 255. 255. 255. 255. 255. 255. 255. 255. 255.
      254. 254. 255. 91. 86. 221. 7. 0. 204. 7. 0. 204. 7. 0. 204. 7. 0.
      204. 116. 112. 227. 255. 255. 255. 255. 255. 255. 248. 248. 254.
      203. 200. 245. 21. 14. 207. 143. 140. 233. 255. 255. 255. 253.
      253. 255. 99. 95. 223. 25. 18. 208. 210. 209. 245. 255. 255. 255.
      255. 255. 255. 255. 255. 255. 255. 255. 255. 255. 255. 255. 255.
      255. 255. 255. 255. 255. 255. 255. 255. 255. 255. 255. 255. 255.
      255. 255. 255. 255. 255. 255. 255. 252. 252. 255. 237. 236. 255.
      240. 239. 255. 255. 255. 255. 247. 247. 255. 235. 234. 255. 246.
      245. 255. 255. 255. 255. 255. 255. 255. 225. 222. 255. 24. 6. 248.
      17. 0. 243. 16. 0. 238. 46. 34. 237. 15. 0. 234. 15. 0. 236. 17.
      0. 241. 127. 118. 249. 255. 255. 255. 246. 245. 254. 55. 43. 236.
      11. 0. 224. 9. 0. 215. 7. 0. 207. 7. 0. 206. 8. 0. 210. 17. 6.
      220. 211. 208. 249. 255. 255. 255. 255. 255. 255. 255. 255. 255.
      255. 255. 255. 255. 255. 255. 255. 255. 255. 255. 255. 255. 255.
      255. 255. 255. 255. 255. 255. 255. 255. 255. 255. 255. 255. 255.
      255. 255. 255. 255. 255. 255. 255. 255. 255. 255. 255. 255. 255.
      255. 255. 255. 137. 133. 231. 112. 107. 225. 255. 255. 255. 255.
      255. 255. 255. 255. 255. 255. 255. 255. 255. 255. 255. 255. 255.
      255. 255. 255. 255. 255. 255. 255. 137. 133. 231. 112. 108. 226.
      255. 255. 255. 255. 255. 255. 255. 255. 255. 255. 255. 255. 255.
      255. 255. 255. 255. 255. 255. 255. 255. 255. 255. 255. 137. 133.
      231. 112. 107. 225. 255. 255. 255. 255. 255. 255. 255. 255. 255.
      254. 254. 255. 81. 76. 220. 186. 184. 241. 255. 255. 255. 255.
      255. 255. 135. 132. 231. 112. 107. 225. 255. 255. 255. 255. 255.
      255. 255. 255. 255. 255. 255. 255. 212. 211. 248. 22. 16. 208.
      145. 142. 233. 156. 153. 239. 29. 23. 208. 238. 238. 252. 255.
      255. 255. 255. 255. 255. 255. 255. 255. 255. 255. 255. 255. 255.
      255. 255. 255. 255. 255. 255. 255. 255. 255. 255. 255. 255. 255.
      255. 255. 255. 255. 255. 255. 255. 255. 255. 255. 255. 255. 252.
      252. 255. 237. 236. 255. 240. 239. 255. 255. 255. 255. 247. 247.
      255. 235. 234. 255. 245. 245. 255. 255. 255. 255. 255. 255. 255.
      224. 222. 254. 23. 6. 248. 17. 0. 243. 15. 0. 238. 47. 38. 234.
      13. 0. 232. 15. 0. 236. 16. 0. 240. 126. 117. 246. 255. 255. 255.
      246. 246. 254. 56. 46. 237. 10. 0. 223. 8. 0. 215. 6. 0. 207. 6.
      0. 207. 6. 0. 211. 14. 6. 219. 209. 207. 251. 255. 255. 255. 255.
      255. 255. 255. 255. 255. 255. 255. 255. 255. 255. 255. 255. 255.
      255. 255. 255. 255. 255. 255. 255. 255. 255. 255. 255. 255. 255.
      255. 255. 255. 255. 255. 255. 253. 253. 255. 75. 71. 218. 188.
      185. 241. 255. 255. 255. 253. 252. 255. 84. 79. 220. 109. 104.
      224. 253. 253. 254. 255. 255. 255. 255. 255. 255. 253. 253. 255.
      76. 71. 218. 188. 185. 241. 176. 174. 240. 17. 10. 206. 201. 200.
      245. 255. 255. 255. 255. 255. 255. 255. 255. 255. 255. 255. 255.
      253. 253. 255. 74. 70. 218. 10. 4. 204. 64. 59. 216. 47. 41. 210.
      248. 248. 255. 255. 255. 255. 255. 255. 255. 255. 255. 255. 255.
      255. 255. 253. 253. 255. 75. 71. 218. 188. 185. 241. 255. 255.
      255. 182. 180. 241. 45. 39. 212. 248. 248. 254. 255. 255. 255.
      255. 255. 255. 254. 254. 255. 221. 221. 248. 65. 60. 216. 159.
      157. 235. 239. 239. 252. 233. 232. 251. 149. 146. 234. 30. 24.
      208. 211. 210. 245. 255. 255. 255. 255. 255. 255. 255. 255. 255.
      255. 255. 255. 255. 255. 255. 255. 255. 255. 255. 255. 255. 255.
      255. 255. 255. 255. 255. 255. 255. 255. 255. 255. 255. 255. 255.
      255. 252. 252. 255. 237. 236. 255. 240. 238. 255. 255. 255. 255.
      247. 247. 255. 235. 234. 255. 246. 245. 255. 255. 255. 255. 255.
      255. 255. 224. 222. 254. 24. 7. 248. 17. 1. 244. 15. 0. 238. 47.
      34. 238. 14. 0. 233. 15. 0. 237. 16. 0. 240. 129. 119. 251. 255.
      255. 255. 246. 246. 254. 55. 44. 236. 11. 0. 224. 8. 0. 215. 4. 0.
      207. 5. 0. 207. 6. 1. 211. 16. 5. 222. 209. 207. 248. 255. 255.
      255. 255. 255. 255. 255. 255. 255. 255. 255. 255. 255. 255. 255.
      255. 255. 255. 255. 255. 255. 255. 255. 255. 255. 255. 255. 255.
      255. 255. 255. 255. 255. 255. 255. 255. 255. 255. 255. 148. 145.
      233. 86. 81. 224. 243. 243. 252. 235. 234. 251. 66. 60. 215. 180.
      178. 237. 255. 255. 255. 255. 255. 255. 255. 255. 255. 254. 254.
      255. 81. 76. 220. 188. 186. 241. 255. 255. 255. 255. 255. 255.
      138. 134. 231. 113. 108. 226. 255. 255. 255. 255. 255. 255. 255.
      255. 255. 254. 254. 255. 80. 75. 219. 188. 185. 241. 255. 255.
      255. 255. 255. 255. 138. 134. 231. 112. 108. 226. 255. 255. 255.
      255. 255. 255. 255. 255. 255. 254. 254. 255. 81. 77. 220. 163.
      160. 237. 72. 67. 217. 58. 53. 215. 121. 117. 227. 112. 108. 226.
      255. 255. 255. 255. 255. 255. 255. 255. 255. 255. 255. 255. 208.
      207. 246. 27. 21. 209. 185. 183. 240. 159. 156. 235. 12. 5. 205.
      131. 127. 229. 231. 231. 250. 255. 255. 255. 255. 255. 255. 255.
      255. 255. 255. 255. 255. 255. 255. 255. 255. 255. 255. 255. 255.
      255. 255. 255. 255. 255. 255. 255. 255. 255. 255. 255. 255. 255.
      255. 255. 255. 252. 252. 255. 237. 236. 255. 240. 238. 255. 255.
      255. 255. 247. 247. 255. 235. 234. 255. 245. 245. 255. 255. 255.
      255. 255. 255. 255. 224. 222. 254. 24. 6. 249. 17. 0. 243. 16. 0.
      238. 44. 33. 238. 14. 0. 233. 14. 0. 236. 16. 0. 241. 129. 121.
      247. 255. 255. 255. 246. 246. 254. 55. 43. 238. 11. 0. 224. 8. 0.
      214. 7. 0. 207. 7. 0. 205. 7. 0. 211. 15. 6. 221. 210. 208. 248.
      255. 255. 255. 255. 255. 255. 255. 255. 255. 255. 255. 255. 255.
      255. 255. 255. 255. 255. 255. 255. 255. 255. 255. 255. 255. 255.
      255. 255. 255. 255. 255. 255. 255. 254. 254. 255. 51. 45. 213.
      183. 181. 240. 251. 251. 255. 62. 57. 215. 179. 176. 239. 253.
      253. 255. 178. 176. 240. 58. 52. 214. 254. 254. 255. 254. 254.
      255. 52. 46. 213. 183. 181. 240. 249. 249. 253. 27. 20. 208. 255.
      255. 255. 255. 255. 255. 252. 252. 254. 20. 14. 207. 254. 254.
      255. 254. 254. 255. 51. 45. 213. 183. 181. 240. 249. 249. 253. 26.
      20. 208. 255. 255. 255. 255. 255. 255. 251. 251. 254. 20. 13. 207.
      254. 254. 255. 253. 253. 255. 52. 46. 213. 183. 181. 240. 249.
      249. 253. 27. 21. 208. 254. 254. 254. 255. 255. 255. 251. 251.
      254. 20. 14. 207. 254. 254. 255. 253. 253. 255. 52. 46. 213. 183.
      181. 240. 254. 254. 255. 110. 106. 225. 89. 84. 221. 214. 213.
      247. 87. 83. 221. 105. 102. 224. 255. 255. 255. 255. 255. 255.
      255. 255. 255. 255. 255. 255. 255. 255. 255. 255. 255. 255. 255.
      255. 255. 255. 255. 255. 255. 255. 255. 255. 255. 255. 255. 255.
      255. 255. 255. 255. 252. 252. 255. 237. 235. 255. 240. 238. 255.
      255. 255. 255. 247. 247. 255. 235. 234. 255. 245. 245. 255. 255.
      255. 255. 255. 255. 255. 224. 222. 255. 24. 6. 249. 17. 0. 242.
      16. 0. 238. 46. 34. 235. 15. 0. 233. 15. 0. 236. 16. 0. 240. 129.
      119. 249. 255. 255. 255. 246. 245. 254. 55. 43. 237. 11. 0. 224.
      9. 0. 214. 7. 0. 207. 7. 0. 206. 9. 0. 211. 16. 6. 219. 210. 208.
      250. 255. 255. 255. 255. 255. 255. 255. 255. 255. 255. 255. 255.
      255. 255. 255. 255. 255. 255. 255. 255. 255. 255. 255. 255. 255.
      255. 255. 255. 255. 255. 255. 255. 255. 255. 255. 255. 251. 251.
      251. 78. 78. 79. 150. 150. 150. 236. 236. 236. 253. 253. 253. 224.
      224. 224. 126. 126. 126. 120. 120. 121. 255. 255. 255. 255. 255.
      255. 251. 251. 251. 159. 159. 161. 249. 249. 249. 255. 255. 255.
      255. 255. 255. 254. 254. 254. 171. 171. 172. 72. 72. 73. 255. 255.
      255. 255. 255. 255. 255. 255. 255. 255. 255. 255. 255. 255. 255.
      249. 249. 249. 162. 162. 162. 47. 47. 47. 148. 148. 148. 254. 254.
      254. 255. 255. 255. 255. 255. 255. 255. 255. 255. 238. 238. 238.
      91. 91. 91. 72. 72. 73. 223. 223. 223. 254. 254. 254. 255. 255.
      255. 255. 255. 255. 255. 255. 255. 255. 255. 255. 249. 249. 249.
      55. 55. 55. 182. 182. 182. 241. 241. 241. 241. 241. 241. 241. 241.
      241. 235. 235. 235. 43. 43. 43. 255. 255. 255. 255. 255. 255. 255.
      255. 255. 255. 255. 255. 255. 255. 255. 255. 255. 255. 255. 255.
      255. 255. 255. 255. 255. 255. 255. 255. 255. 255. 255. 255. 255.
      255. 255. 255. 255. 255. 255. 255. 255. 255. 250. 250. 250. 159.
      159. 159. 181. 181. 181. 252. 252. 252. 255. 255. 255. 255. 255.
      255. 255. 255. 255. 255. 255. 255. 254. 254. 254. 165. 165. 165.
      66. 66. 66. 58. 58. 58. 56. 56. 56. 64. 64. 64. 195. 195. 195.
      254. 254. 254. 255. 255. 255. 245. 245. 245. 91. 91. 91. 55. 55.
      55. 45. 45. 45. 37. 37. 37. 32. 32. 32. 30. 30. 30. 32. 32. 32.
      108. 108. 108. 255. 255. 255. 255. 255. 255. 255. 255. 255. 255.
      255. 255. 255. 255. 255. 255. 255. 255. 255. 255. 255. 255. 255.
      255. 255. 255. 255. 255. 255. 255. 255. 255. 255. 254. 254. 254.
      73. 73. 73. 191. 191. 191. 255. 255. 255. 255. 255. 255. 218. 218.
      218. 60. 60. 60. 176. 176. 176. 254. 254. 254. 255. 255. 255. 255.
      255. 255. 255. 255. 255. 255. 255. 255. 196. 196. 196. 52. 52. 52.
      49. 49. 49. 157. 157. 157. 239. 239. 239. 255. 255. 255. 255. 255.
      255. 255. 255. 255. 255. 255. 255. 255. 255. 255. 255. 255. 255.
      255. 255. 255. 255. 255. 255. 253. 253. 253. 155. 155. 155. 88.
      88. 89. 255. 255. 255. 250. 250. 250. 211. 211. 211. 242. 242.
      242. 255. 255. 255. 255. 255. 255. 255. 255. 255. 255. 255. 255.
      229. 229. 229. 59. 59. 59. 254. 254. 254. 254. 254. 254. 208. 208.
      208. 54. 54. 54. 101. 101. 101. 197. 197. 197. 182. 182. 182. 84.
      84. 84. 75. 75. 76. 239. 239. 239. 255. 255. 255. 255. 255. 255.
      255. 255. 255. 255. 255. 255. 255. 255. 255. 255. 255. 255. 255.
      255. 255. 255. 255. 255. 255. 255. 255. 255. 255. 255. 255. 255.
      255. 255. 255. 255. 255. 255. 255. 255. 255. 255. 227. 227. 227.
      98. 98. 99. 169. 169. 169. 253. 253. 253. 255. 255. 255. 255. 255.
      255. 255. 255. 255. 255. 255. 255. 245. 245. 245. 103. 103. 104.
      59. 59. 59. 54. 54. 54. 50. 50. 50. 56. 56. 56. 191. 191. 191.
      254. 254. 254. 255. 255. 255. 235. 235. 235. 69. 69. 69. 51. 51.
      51. 41. 41. 41. 32. 32. 32. 27. 27. 27. 25. 25. 25. 28. 28. 28.
      144. 144. 145. 255. 255. 255. 255. 255. 255. 255. 255. 255. 255.
      255. 255. 255. 255. 255. 255. 255. 255. 255. 255. 255. 255. 255.
      255. 255. 255. 255. 255. 255. 255. 255. 255. 255. 255. 255. 255.
      255. 255. 255. 255. 255. 255. 255. 255. 255. 175. 175. 175. 35.
      35. 35. 140. 140. 140. 255. 255. 255. 255. 255. 255. 255. 255.
      255. 255. 255. 255. 255. 255. 255. 253. 253. 253. 130. 130. 130.
      89. 89. 89. 123. 123. 123. 140. 140. 140. 255. 255. 255. 255. 255.
      255. 255. 255. 255. 255. 255. 255. 251. 251. 251. 103. 103. 103.
      139. 139. 139. 254. 254. 254. 128. 128. 128. 140. 140. 140. 255.
      255. 255. 255. 255. 255. 255. 255. 255. 253. 253. 253. 74. 74. 74.
      34. 34. 34. 34. 34. 34. 34. 34. 34. 34. 34. 34. 34. 34. 34. 37.
      37. 37. 246. 246. 246. 255. 255. 255. 255. 255. 255. 255. 255.
      255. 255. 255. 255. 255. 255. 255. 234. 234. 234. 114. 114. 114.
      123. 123. 123. 236. 236. 236. 255. 255. 255. 255. 255. 255. 255.
      255. 255. 255. 255. 255. 255. 255. 255. 255. 255. 255. 255. 255.
      255. 255. 255. 255. 255. 255. 255. 255. 255. 255. 255. 255. 255.
      255. 255. 255. 255. 255. 255. 255. 255. 255. 255. 255. 255. 227.
      227. 227. 98. 98. 99. 170. 170. 170. 253. 253. 253. 255. 255. 255.
      255. 255. 255. 255. 255. 255. 255. 255. 255. 245. 245. 245. 104.
      104. 104. 59. 59. 60. 54. 54. 54. 51. 51. 51. 56. 56. 56. 191.
      191. 191. 254. 254. 254. 255. 255. 255. 235. 235. 235. 69. 69. 70.
      51. 51. 51. 40. 40. 40. 33. 33. 33. 27. 27. 27. 25. 25. 25. 29.
      29. 29. 145. 145. 145. 255. 255. 255. 255. 255. 255. 255. 255.
      255. 255. 255. 255. 255. 255. 255. 255. 255. 255. 255. 255. 255.
      255. 255. 255. 255. 255. 255. 255. 255. 255. 255. 255. 255. 255.
      255. 255. 254. 254. 254. 99. 99. 99. 195. 195. 195. 255. 255. 255.
      255. 255. 255. 255. 255. 255. 255. 255. 255. 255. 255. 255. 255.
      255. 255. 255. 255. 255. 254. 254. 254. 98. 98. 98. 119. 119. 119.
      130. 130. 130. 145. 145. 145. 209. 209. 209. 255. 255. 255. 255.
      255. 255. 255. 255. 255. 255. 255. 255. 255. 255. 255. 218. 218.
      218. 233. 233. 233. 255. 255. 255. 255. 255. 255. 229. 229. 229.
      56. 56. 56. 200. 199. 200. 255. 255. 255. 255. 255. 255. 255. 255.
      255. 253. 253. 253. 255. 255. 255. 255. 255. 255. 255. 255. 255.
      254. 254. 254. 147. 147. 147. 127. 127. 127. 255. 255. 255. 255.
      255. 255. 237. 237. 237. 68. 68. 68. 98. 98. 98. 202. 202. 202.
      184. 184. 184. 66. 66. 66. 117. 117. 117. 252. 252. 252. 255. 255.
      255. 255. 255. 255. 255. 255. 255. 255. 255. 255. 255. 255. 255.
      255. 255. 255. 255. 255. 255. 255. 255. 255. 255. 255. 255. 255.
      255. 255. 255. 255. 255. 255. 255. 255. 255. 255. 255. 255. 255.
      255. 227. 227. 227. 98. 98. 99. 169. 169. 169. 253. 253. 253. 255.
      255. 255. 255. 255. 255. 255. 255. 255. 255. 255. 255. 245. 245.
      245. 103. 103. 104. 59. 59. 59. 54. 54. 54. 51. 51. 51. 56. 56.
      56. 191. 191. 191. 254. 254. 254. 255. 255. 255. 235. 235. 235.
      69. 69. 69. 51. 51. 51. 40. 40. 40. 32. 32. 32. 27. 27. 27. 25.
      25. 25. 28. 28. 28. 144. 144. 145. 255. 255. 255. 255. 255. 255.
      255. 255. 255. 255. 255. 255. 255. 255. 255. 255. 255. 255. 255.
      255. 255. 255. 255. 255. 255. 255. 255. 255. 255. 255. 255. 255.
      255. 255. 255. 255. 243. 243. 243. 62. 62. 62. 138. 137. 137. 241.
      241. 241. 237. 237. 237. 107. 107. 107. 84. 84. 84. 251. 251. 251.
      255. 255. 255. 254. 254. 254. 109. 109. 110. 105. 105. 105. 212.
      212. 212. 140. 140. 140. 142. 142. 142. 231. 231. 231. 255. 255.
      255. 255. 255. 255. 255. 255. 255. 254. 254. 254. 73. 73. 73. 40.
      40. 40. 181. 181. 181. 255. 255. 255. 254. 254. 254. 145. 145.
      145. 101. 101. 101. 252. 252. 252. 255. 255. 255. 254. 254. 254.
      131. 131. 132. 59. 59. 59. 250. 250. 250. 255. 255. 255. 255. 255.
      255. 238. 238. 238. 40. 40. 40. 245. 245. 245. 255. 255. 255. 255.
      255. 255. 251. 251. 251. 111. 111. 111. 58. 58. 58. 196. 196. 196.
      178. 178. 178. 56. 56. 56. 185. 185. 186. 255. 255. 255. 255. 255.
      255. 255. 255. 255. 255. 255. 255. 255. 255. 255. 255. 255. 255.
      255. 255. 255. 255. 255. 255. 255. 255. 255. 255. 255. 255. 255.
      255. 255. 255. 255. 255. 255. 255. 255. 255. 255. 255. 255. 255.
      255. 227. 227. 227. 98. 98. 99. 169. 169. 169. 253. 253. 253. 255.
      255. 255. 255. 255. 255. 255. 255. 255. 255. 255. 255. 245. 245.
      245. 104. 104. 104. 59. 59. 59. 54. 54. 54. 51. 51. 51. 56. 56.
      56. 191. 191. 191. 254. 254. 254. 255. 255. 255. 235. 235. 235.
      69. 69. 69. 51. 51. 51. 40. 40. 40. 32. 32. 32. 27. 27. 27. 25.
      25. 25. 29. 29. 29. 145. 145. 145. 255. 255. 255. 255. 255. 255.
      255. 255. 255. 255. 255. 255. 255. 255. 255. 255. 255. 255. 255.
      255. 255. 255. 255. 255. 255. 255. 255. 255. 255. 255. 255. 255.
      255. 254. 254. 254. 73. 73. 73. 190. 190. 190. 255. 255. 255. 255.
      255. 255. 255. 255. 255. 181. 181. 181. 46. 46. 46. 223. 223. 223.
      255. 255. 255. 255. 255. 255. 255. 255. 255. 255. 255. 255. 255.
      255. 255. 254. 254. 254. 163. 163. 163. 69. 69. 69. 249. 249. 249.
      255. 255. 255. 255. 255. 255. 255. 255. 255. 255. 255. 255. 255.
      255. 255. 255. 255. 255. 183. 183. 183. 57. 57. 57. 248. 248. 248.
      255. 255. 255. 255. 255. 255. 255. 255. 255. 255. 255. 255. 255.
      255. 255. 255. 255. 255. 247. 247. 247. 58. 58. 58. 201. 201. 201.
      255. 255. 255. 255. 255. 255. 255. 255. 255. 255. 255. 255. 255.
      255. 255. 255. 255. 255. 254. 254. 254. 132. 132. 132. 79. 79. 79.
      254. 254. 254. 255. 255. 255. 255. 255. 255. 255. 255. 255. 255.
      255. 255. 255. 255. 255. 255. 255. 255. 255. 255. 255. 255. 255.
      255. 255. 255. 255. 255. 255. 255. 255. 255. 255. 255. 255. 255.
      255. 255. 255. 255. 255. 255. 255. 255. 255. 255. 255. 255. 255.
      255. 255. 227. 227. 227. 99. 99. 99. 169. 169. 169. 253. 253. 253.
      255. 255. 255. 255. 255. 255. 255. 255. 255. 255. 255. 255. 245.
      245. 245. 104. 104. 104. 59. 59. 60. 54. 54. 54. 50. 50. 50. 56.
      56. 56. 191. 191. 191. 254. 254. 254. 255. 255. 255. 235. 235.
      235. 69. 69. 70. 50. 50. 50. 40. 40. 40. 33. 33. 33. 27. 27. 27.
      25. 25. 25. 29. 29. 29. 145. 145. 145. 255. 255. 255. 255. 255.
      255. 255. 255. 255. 255. 255. 255. 255. 255. 255. 255. 255. 255.
      255. 255. 255. 255. 255. 255. 255. 255. 255. 255. 255. 255. 255.
      255. 255. 255. 255. 255. 246. 246. 246. 82. 82. 82. 172. 172. 172.
      249. 249. 249. 247. 247. 247. 146. 146. 146. 89. 89. 89. 251. 251.
      251. 255. 255. 255. 255. 255. 255. 239. 239. 239. 62. 62. 62. 225.
      225. 225. 255. 255. 255. 255. 255. 255. 203. 203. 203. 55. 55. 55.
      248. 248. 248. 255. 255. 255. 255. 255. 255. 238. 238. 238. 74.
      74. 74. 61. 61. 61. 115. 115. 115. 111. 111. 111. 54. 54. 54. 86.
      86. 86. 246. 246. 246. 255. 255. 255. 253. 253. 253. 76. 76. 76.
      177. 177. 177. 255. 255. 255. 255. 255. 255. 255. 255. 255. 254.
      254. 254. 154. 154. 154. 120. 120. 120. 255. 255. 255. 255. 255.
      255. 241. 241. 241. 75. 75. 75. 96. 96. 97. 199. 199. 199. 192.
      192. 192. 82. 82. 82. 88. 88. 88. 248. 248. 248. 255. 255. 255.
      255. 255. 255. 255. 255. 255. 255. 255. 255. 255. 255. 255. 255.
      255. 255. 255. 255. 255. 255. 255. 255. 255. 255. 255. 255. 255.
      255. 255. 255. 255. 255. 255. 255. 255. 255. 255. 255. 255. 255.
      227. 227. 227. 99. 99. 99. 169. 169. 169. 253. 253. 253. 255. 255.
      255. 255. 255. 255. 255. 255. 255. 255. 255. 255. 245. 245. 245.
      104. 104. 104. 59. 59. 59. 54. 54. 54. 51. 51. 51. 56. 56. 56.
      191. 191. 191. 254. 254. 254. 255. 255. 255. 235. 235. 235. 69.
      69. 69. 50. 50. 50. 41. 41. 41. 32. 32. 32. 27. 27. 27. 25. 25.
      25. 28. 28. 28. 144. 144. 145. 255. 255. 255. 255. 255. 255. 255.
      255. 255. 255. 255. 255. 255. 255. 255. 255. 255. 255. 255. 255.
      255. 255. 255. 255. 255. 255. 255. 255. 255. 255. 255. 255. 255.
      255. 255. 255. 212. 212. 212. 56. 56. 56. 209. 209. 209. 250. 250.
      250. 188. 188. 188. 43. 43. 43. 186. 186. 186. 255. 255. 255. 255.
      255. 255. 254. 254. 254. 75. 75. 75. 181. 181. 181. 255. 255. 255.
      255. 255. 255. 255. 255. 255. 195. 195. 195. 58. 58. 58. 248. 248.
      248. 255. 255. 255. 255. 255. 255. 226. 225. 225. 62. 62. 62. 196.
      196. 196. 247. 247. 247. 198. 198. 199. 52. 52. 52. 37. 37. 37.
      245. 245. 245. 255. 255. 255. 255. 255. 255. 255. 255. 255. 255.
      255. 255. 255. 255. 255. 249. 249. 249. 255. 255. 255. 192. 192.
      192. 70. 70. 70. 249. 249. 249. 255. 255. 255. 255. 255. 255. 215.
      215. 215. 51. 51. 51. 129. 128. 129. 207. 207. 207. 100. 100. 100.
      53. 53. 53. 226. 226. 226. 255. 255. 255. 255. 255. 255. 255. 255.
      255. 255. 255. 255. 255. 255. 255. 255. 255. 255. 255. 255. 255.
      255. 255. 255. 255. 255. 255. 255. 255. 255. 255. 255. 255. 255.
      255. 255. 255. 255. 255. 255. 255. 255. 255. 255. 255. 227. 227.
      227. 98. 98. 99. 169. 169. 169. 253. 253. 253. 255. 255. 255. 255.
      255. 255. 255. 255. 255. 255. 255. 255. 245. 245. 245. 103. 103.
      104. 59. 59. 59. 54. 54. 54. 50. 50. 50. 56. 56. 56. 191. 191.
      191. 254. 254. 254. 255. 255. 255. 235. 235. 235. 69. 69. 70. 50.
      50. 50. 40. 40. 40. 32. 32. 32. 27. 27. 27. 25. 25. 25. 29. 29.
      29. 145. 145. 145. 255. 255. 255. 255. 255. 255. 255. 255. 255.
      255. 255. 255. 255. 255. 255. 255. 255. 255. 255. 255. 255. 255.
      255. 255. 255. 255. 255. 255. 255. 255. 255. 255. 255. 255. 255.
      255. 255. 255. 255. 254. 254. 254. 204. 203. 203. 34. 34. 34. 36.
      36. 36. 217. 217. 217. 255. 255. 255. 255. 255. 255. 255. 255.
      255. 255. 255. 255. 255. 255. 255. 250. 250. 250. 84. 84. 84. 85.
      85. 86. 76. 76. 77. 119. 119. 119. 255. 255. 255. 255. 255. 255.
      255. 255. 255. 255. 255. 255. 255. 255. 255. 220. 219. 219. 37.
      37. 37. 184. 184. 184. 161. 161. 161. 43. 43. 43. 242. 241. 241.
      255. 255. 255. 255. 255. 255. 255. 255. 255. 254. 254. 254. 110.
      110. 110. 34. 34. 34. 34. 34. 34. 34. 34. 34. 34. 34. 34. 132.
      132. 132. 255. 255. 255. 255. 255. 255. 249. 249. 249. 207. 207.
      207. 47. 47. 48. 156. 156. 156. 255. 255. 255. 253. 253. 253. 118.
      117. 117. 51. 51. 51. 215. 215. 215. 255. 255. 255. 255. 255. 255.
      255. 255. 255. 255. 255. 255. 255. 255. 255. 255. 255. 255. 255.
      255. 255. 255. 255. 255. 255. 255. 255. 255. 255. 255. 255. 255.
      255. 255. 255. 255. 255. 255. 255. 255. 255. 255. 228. 227. 227.
      98. 98. 99. 170. 168. 169. 253. 253. 253. 255. 255. 255. 255. 255.
      255. 255. 255. 255. 255. 255. 255. 245. 245. 245. 103. 103. 104.
      59. 59. 59. 54. 54. 54. 50. 50. 50. 56. 56. 56. 191. 191. 191.
      254. 254. 254. 255. 255. 255. 235. 235. 235. 70. 70. 70. 50. 50.
      50. 40. 40. 40. 33. 33. 33. 27. 27. 27. 25. 25. 25. 29. 29. 29.
      145. 145. 145. 255. 255. 255. 255. 255. 255. 255. 255. 255. 255.
      255. 255. 255. 255. 255. 255. 255. 255. 255. 255. 255. 255. 255.
      255. 255. 255. 255. 255. 255. 255. 255. 255. 255. 255. 255. 255.
      255. 255. 255. 255. 255. 255. 255. 255. 255. 255. 255. 255. 255.
      255. 255. 149. 149. 149. 127. 127. 127. 255. 255. 255. 255. 255.
      255. 255. 255. 255. 255. 255. 255. 255. 255. 255. 255. 255. 255.
      255. 255. 255. 255. 255. 255. 149. 149. 149. 128. 128. 128. 255.
      255. 255. 255. 255. 255. 255. 255. 255. 255. 255. 255. 255. 255.
      255. 255. 255. 255. 255. 255. 255. 255. 255. 255. 149. 149. 149.
      127. 127. 127. 255. 255. 255. 255. 255. 255. 255. 255. 255. 254.
      254. 254. 99. 99. 99. 193. 193. 193. 255. 255. 255. 255. 255. 255.
      148. 148. 148. 128. 128. 128. 255. 255. 255. 255. 255. 255. 255.
      255. 255. 255. 255. 255. 216. 216. 216. 49. 50. 50. 157. 156. 157.
      167. 167. 168. 57. 57. 57. 239. 239. 239. 255. 255. 255. 255. 255.
      255. 255. 255. 255. 255. 255. 255. 255. 255. 255. 255. 255. 255.
      255. 255. 255. 255. 255. 255. 255. 255. 255. 255. 255. 255. 255.
      255. 255. 255. 255. 255. 255. 255. 255. 255. 255. 255. 255. 255.
      255. 228. 227. 227. 99. 98. 99. 170. 169. 169. 253. 253. 253. 255.
      255. 255. 255. 255. 255. 255. 255. 255. 255. 255. 255. 245. 245.
      245. 103. 103. 103. 60. 60. 60. 55. 55. 55. 50. 50. 50. 56. 56.
      56. 190. 190. 191. 254. 254. 254. 255. 255. 255. 235. 235. 235.
      70. 70. 70. 51. 51. 51. 40. 40. 42. 32. 32. 32. 27. 27. 27. 25.
      25. 25. 28. 28. 28. 145. 145. 145. 255. 255. 255. 255. 255. 255.
      255. 255. 255. 255. 255. 255. 255. 255. 255. 255. 255. 255. 255.
      255. 255. 255. 255. 255. 255. 255. 255. 255. 255. 255. 255. 255.
      255. 255. 255. 255. 253. 253. 253. 95. 95. 95. 195. 195. 195. 255.
      255. 255. 253. 253. 253. 103. 103. 104. 125. 125. 125. 253. 253.
      253. 255. 255. 255. 255. 255. 255. 253. 253. 253. 96. 96. 96. 195.
      195. 195. 184. 184. 184. 44. 44. 44. 206. 206. 206. 255. 255. 255.
      255. 255. 255. 255. 255. 255. 255. 255. 255. 253. 253. 253. 94.
      94. 94. 38. 38. 38. 85. 85. 85. 71. 71. 71. 249. 249. 249. 255.
      255. 255. 255. 255. 255. 255. 255. 255. 255. 255. 255. 253. 253.
      253. 95. 95. 95. 195. 195. 195. 255. 255. 255. 190. 190. 191. 64.
      65. 65. 248. 248. 248. 255. 255. 255. 255. 255. 255. 254. 254.
      254. 224. 224. 224. 86. 86. 86. 170. 170. 170. 241. 241. 241. 235.
      235. 235. 159. 159. 160. 56. 56. 56. 216. 216. 216. 255. 255. 255.
      255. 255. 255. 255. 255. 255. 255. 255. 255. 255. 255. 255. 255.
      255. 255. 255. 255. 255. 255. 255. 255. 255. 255. 255. 255. 255.
      255. 255. 255. 255. 255. 255. 255. 255. 255. 255. 255. 255. 255.
      227. 226. 227. 99. 99. 99. 170. 168. 169. 253. 253. 253. 255. 255.
      255. 255. 255. 255. 255. 255. 255. 255. 255. 255. 245. 245. 245.
      104. 104. 104. 60. 60. 60. 55. 55. 55. 51. 51. 51. 57. 57. 57.
      191. 191. 191. 254. 254. 254. 255. 255. 255. 235. 235. 235. 70.
      70. 70. 51. 51. 51. 40. 40. 40. 32. 32. 32. 26. 26. 27. 25. 25.
      25. 28. 29. 29. 145. 145. 145. 255. 255. 255. 255. 255. 255. 255.
      255. 255. 255. 255. 255. 255. 255. 255. 255. 255. 255. 255. 255.
      255. 255. 255. 255. 255. 255. 255. 255. 255. 255. 255. 255. 255.
      255. 255. 255. 255. 255. 255. 170. 169. 170. 86. 86. 86. 233. 233.
      233. 242. 242. 242. 105. 105. 105. 150. 150. 151. 255. 255. 255.
      255. 255. 255. 255. 255. 255. 255. 255. 255. 103. 103. 103. 172.
      172. 172. 255. 255. 255. 255. 255. 255. 192. 192. 192. 68. 68. 69.
      255. 255. 255. 255. 255. 255. 255. 255. 255. 255. 255. 255. 103.
      103. 103. 172. 172. 172. 255. 255. 255. 255. 255. 255. 193. 193.
      193. 68. 68. 69. 255. 255. 255. 255. 255. 255. 254. 254. 254. 209.
      209. 209. 88. 88. 88. 124. 123. 124. 79. 79. 79. 89. 90. 90. 173.
      173. 173. 69. 69. 70. 255. 255. 255. 255. 255. 255. 255. 255. 255.
      255. 255. 255. 190. 190. 190. 74. 74. 74. 214. 214. 214. 202. 202.
      202. 46. 46. 46. 118. 118. 119. 241. 241. 241. 255. 255. 255. 255.
      255. 255. 255. 255. 255. 255. 255. 255. 255. 255. 255. 255. 255.
      255. 255. 255. 255. 255. 255. 255. 255. 255. 255. 255. 255. 255.
      255. 255. 255. 255. 255. 255. 255. 255. 255. 255. 255. 255. 249.
      248. 248. 145. 144. 145. 194. 192. 193. 253. 253. 253. 255. 255.
      255. 255. 255. 255. 255. 255. 255. 255. 255. 255. 254. 254. 254.
      148. 148. 148. 64. 64. 64. 58. 58. 58. 55. 55. 55. 68. 68. 68.
      205. 205. 205. 254. 254. 254. 255. 255. 255. 235. 235. 235. 71.
      71. 71. 54. 54. 54. 43. 43. 44. 36. 36. 36. 31. 31. 31. 31. 31.
      31. 32. 32. 32. 128. 128. 129. 255. 255. 255. 255. 255. 255. 255.
      255. 255. 255. 255. 255. 255. 255. 255. 255. 255. 255. 255. 255.
      255. 255. 255. 255. 255. 255. 255. 255. 255. 255. 255. 255. 255.
      254. 254. 254. 73. 73. 73. 191. 191. 191. 251. 251. 251. 85. 85.
      85. 188. 188. 188. 253. 253. 253. 186. 186. 186. 80. 80. 80. 254.
      254. 254. 254. 254. 254. 73. 73. 73. 191. 191. 191. 249. 249. 249.
      52. 52. 52. 255. 255. 255. 255. 255. 255. 252. 252. 252. 46. 46.
      46. 254. 254. 254. 254. 254. 254. 73. 73. 73. 191. 191. 191. 249.
      249. 249. 52. 52. 52. 255. 255. 255. 255. 255. 255. 251. 251. 251.
      46. 46. 46. 254. 254. 254. 253. 253. 253. 73. 73. 73. 191. 191.
      191. 249. 249. 249. 52. 52. 52. 254. 254. 254. 255. 255. 255. 251.
      251. 251. 46. 46. 46. 254. 254. 254. 253. 253. 253. 73. 73. 73.
      191. 191. 191. 254. 254. 254. 125. 125. 125. 107. 107. 107. 219.
      219. 219. 106. 106. 106. 122. 122. 122. 255. 255. 255. 255. 255.
      255. 255. 255. 255. 255. 255. 255. 255. 255. 255. 255. 255. 255.
      255. 255. 255. 255. 255. 255. 255. 255. 255. 255. 255. 255. 255.
      255. 255. 255. 255. 255. 255. 255. 255. 255. 255. 255. 227. 227.
      227. 99. 99. 99. 169. 169. 169. 253. 253. 253. 255. 255. 255. 255.
      255. 255. 255. 255. 255. 255. 255. 255. 245. 245. 245. 103. 103.
      103. 60. 60. 60. 54. 54. 54. 50. 50. 50. 56. 56. 56. 191. 191.
      191. 254. 254. 254. 255. 255. 255. 235. 235. 235. 70. 70. 70. 51.
      51. 51. 40. 40. 40. 32. 32. 32. 27. 27. 27. 25. 25. 25. 28. 28.
      28. 145. 145. 145. 255. 255. 255.</data></samples>
  <responses type_id="opencv-matrix">
    <rows>53</rows>
    <cols>1</cols>
    <dt>f</dt>
    <data>
      9950. 9951. 9952. 9953. 9954. 9955. 9956. 9957. 9997. 99106.
      99107. 99113. 99116. 10050. 10051. 10052. 10053. 10054. 10055.
      10056. 10057. 10097. 100106. 100107. 100113. 100116. 103116.
      10450. 10451. 10452. 10453. 10454. 10455. 10456. 10457. 10497.
      104106. 104107. 104113. 104116. 11550. 11551. 11552. 11553. 11554.
      11555. 11556. 11557. 11597. 115106. 115107. 115113. 115116.</data></responses></opencv_ml_knn>
</opencv_storage>
