<?xml version="1.0"?>
<opencv_storage>
<opencv_ml_knn>
  <format>3</format>
  <is_classifier>1</is_classifier>
  <default_k>10</default_k>
  <samples type_id="opencv-matrix">
    <rows>40</rows>
    <cols>100</cols>
    <dt>f</dt>
    <data>
      255. 255. 255. 255. 255. 217. 140. 64. 0. 0. 255. 255. 255. 255.
      255. 217. 140. 64. 0. 0. 255. 255. 255. 255. 255. 226. 169. 112.
      64. 64. 255. 255. 255. 255. 255. 238. 203. 169. 140. 140. 255.
      255. 255. 255. 255. 249. 238. 226. 217. 217. 255. 255. 255. 255.
      255. 249. 238. 226. 217. 217. 255. 255. 255. 255. 255. 238. 203.
      169. 140. 140. 255. 255. 255. 255. 255. 226. 169. 112. 64. 64.
      255. 255. 255. 255. 255. 217. 140. 64. 0. 0. 255. 255. 255. 255.
      255. 217. 140. 64. 0. 0. 255. 255. 255. 255. 255. 255. 255. 255.
      255. 255. 255. 255. 255. 255. 255. 255. 255. 255. 255. 255. 255.
      255. 255. 255. 255. 255. 255. 255. 255. 255. 255. 255. 255. 255.
      255. 255. 255. 255. 255. 255. 255. 255. 255. 255. 255. 255. 255.
      255. 255. 255. 255. 255. 255. 255. 255. 255. 255. 255. 255. 255.
      255. 255. 255. 255. 255. 255. 255. 255. 255. 255. 255. 255. 255.
      255. 255. 255. 255. 255. 255. 255. 255. 255. 255. 255. 255. 255.
      255. 255. 255. 255. 255. 255. 255. 255. 255. 255. 255. 255. 255.
      255. 0. 76. 255. 255. 255. 179. 255. 255. 76. 0. 229. 255. 255.
      26. 26. 0. 26. 255. 255. 229. 255. 255. 0. 0. 0. 0. 0. 0. 255.
      255. 255. 255. 0. 0. 0. 0. 0. 0. 255. 255. 255. 255. 0. 0. 0. 0.
      0. 0. 255. 255. 255. 255. 0. 0. 0. 0. 0. 0. 255. 255. 255. 255. 0.
      0. 0. 0. 0. 0. 255. 255. 255. 255. 128. 0. 0. 0. 0. 128. 255. 255.
      0. 255. 255. 255. 26. 26. 255. 255. 255. 0. 0. 76. 76. 255. 255.
      255. 255. 76. 76. 0. 0. 11. 121. 255. 221. 221. 255. 121. 11. 0.
      11. 233. 198. 26. 14. 14. 26. 198. 233. 11. 134. 255. 191. 0. 0.
      0. 0. 191. 255. 134. 255. 251. 172. 0. 0. 0. 0. 0. 217. 255. 255.
      217. 0. 0. 0. 0. 0. 0. 217. 255. 255. 228. 57. 0. 0. 0. 0. 0. 217.
      255. 255. 255. 191. 0. 0. 0. 0. 0. 217. 255. 134. 255. 191. 0. 0.
      0. 0. 191. 255. 134. 11. 233. 255. 175. 26. 26. 175. 255. 233. 11.
      0. 11. 121. 255. 255. 255. 255. 121. 11. 0. 0. 76. 255. 255. 179.
      179. 255. 255. 76. 0. 229. 255. 255. 26. 0. 0. 26. 255. 255. 229.
      255. 255. 0. 0. 0. 0. 0. 0. 255. 255. 255. 255. 0. 0. 0. 0. 0. 0.
      255. 255. 255. 255. 0. 0. 0. 0. 0. 0. 255. 255. 255. 255. 0. 0. 0.
      0. 0. 0. 255. 255. 255. 255. 0. 0. 0. 0. 0. 0. 255. 255. 255. 255.
      128. 0. 0. 0. 0. 128. 255. 255. 0. 255. 255. 255. 26. 26. 255.
      255. 255. 0. 0. 76. 76. 255. 255. 255. 255. 76. 76. 0. 0. 0. 0. 0.
      0. 94. 255. 255. 76. 0. 0. 0. 0. 0. 0. 255. 255. 255. 76. 0. 0. 0.
      0. 0. 229. 242. 166. 255. 76. 0. 0. 0. 13. 186. 232. 0. 76. 255.
      76. 0. 0. 54. 217. 255. 25. 0. 76. 255. 76. 0. 8. 130. 217. 54. 0.
      0. 76. 255. 76. 0. 25. 255. 127. 0. 0. 23. 237. 255. 76. 0. 128.
      166. 255. 255. 255. 255. 255. 255. 255. 255. 0. 0. 0. 0. 0. 0. 76.
      255. 76. 0. 0. 0. 0. 0. 0. 0. 76. 255. 76. 0. 76. 255. 255. 255.
      179. 255. 255. 255. 76. 0. 26. 26. 26. 26. 0. 26. 26. 255. 255. 0.
      0. 0. 0. 0. 0. 0. 0. 255. 255. 255. 0. 0. 0. 0. 0. 0. 0. 255. 255.
      0. 0. 0. 0. 0. 0. 0. 179. 255. 76. 0. 0. 0. 0. 0. 76. 255. 255.
      179. 0. 0. 0. 0. 0. 229. 255. 255. 26. 0. 0. 0. 0. 128. 255. 255.
      128. 0. 0. 0. 0. 0. 255. 255. 255. 26. 26. 26. 26. 26. 26. 26.
      255. 255. 255. 255. 255. 255. 255. 255. 255. 255. 4. 103. 255.
      228. 179. 221. 255. 255. 103. 4. 231. 255. 198. 17. 0. 14. 26.
      198. 255. 13. 134. 255. 191. 0. 0. 0. 0. 191. 255. 13. 11. 233.
      255. 175. 26. 26. 175. 255. 38. 0. 0. 38. 255. 255. 255. 255. 255.
      121. 11. 0. 13. 255. 236. 179. 179. 179. 228. 255. 103. 4. 231.
      255. 191. 0. 0. 0. 17. 198. 255. 13. 255. 217. 0. 0. 0. 0. 0. 96.
      236. 134. 231. 255. 198. 26. 26. 26. 175. 255. 255. 13. 4. 76.
      121. 255. 255. 255. 255. 121. 76. 4. 0. 0. 19. 139. 255. 255. 205.
      179. 179. 9. 0. 34. 236. 175. 26. 26. 9. 0. 0. 0. 13. 255. 223.
      83. 0. 0. 0. 0. 0. 0. 255. 255. 191. 9. 26. 26. 26. 26. 4. 0. 255.
      255. 236. 205. 255. 255. 255. 255. 190. 9. 255. 255. 191. 0. 0. 0.
      0. 134. 243. 255. 255. 255. 191. 0. 0. 0. 0. 0. 217. 255. 134.
      255. 191. 0. 0. 0. 0. 96. 236. 255. 11. 233. 255. 175. 26. 26.
      175. 255. 255. 13. 0. 11. 121. 255. 255. 255. 255. 121. 76. 4. 0.
      11. 121. 255. 255. 255. 255. 121. 76. 4. 11. 233. 198. 26. 26. 26.
      26. 198. 255. 13. 134. 255. 191. 0. 0. 0. 0. 96. 236. 255. 231.
      255. 191. 0. 0. 0. 0. 0. 217. 255. 13. 255. 236. 116. 0. 0. 0.
      134. 243. 255. 0. 38. 255. 255. 255. 255. 255. 255. 255. 255. 0.
      4. 26. 26. 26. 26. 26. 198. 255. 255. 0. 0. 0. 0. 0. 0. 0. 191.
      255. 134. 0. 4. 26. 26. 26. 152. 255. 236. 34. 0. 0. 38. 255. 255.
      255. 255. 139. 19. 0. 0. 179. 179. 179. 179. 179. 179. 228. 255.
      255. 182. 0. 0. 0. 0. 0. 0. 17. 198. 255. 13. 0. 0. 0. 0. 0. 0.
      166. 255. 147. 6. 0. 0. 0. 0. 0. 140. 255. 236. 34. 0. 0. 0. 0. 0.
      0. 140. 255. 64. 0. 0. 0. 0. 0. 0. 115. 255. 205. 45. 0. 0. 0. 0.
      0. 80. 241. 255. 89. 0. 0. 0. 0. 0. 32. 172. 255. 115. 0. 0. 0. 0.
      0. 4. 83. 255. 140. 0. 0. 0. 0. 0. 0. 38. 255. 192. 42. 0. 0. 0.
      0. 0. 4. 103. 255. 255. 221. 221. 255. 255. 103. 4. 1. 26. 26. 26.
      14. 14. 26. 198. 255. 13. 0. 0. 0. 0. 0. 0. 0. 191. 255. 134. 0.
      0. 6. 26. 26. 152. 255. 236. 34. 0. 0. 0. 19. 139. 255. 255. 255.
      198. 179. 9. 0. 0. 0. 0. 0. 0. 0. 191. 255. 85. 0. 0. 0. 0. 0. 0.
      0. 19. 221. 255. 0. 0. 0. 0. 0. 0. 0. 96. 236. 255. 37. 221. 26.
      26. 26. 26. 175. 255. 233. 11. 85. 255. 255. 255. 255. 255. 255.
      121. 11. 0. 76. 76. 255. 255. 179. 255. 255. 255. 76. 0. 26. 26.
      26. 26. 0. 26. 26. 255. 255. 229. 0. 0. 0. 0. 0. 0. 0. 255. 255.
      255. 0. 0. 0. 0. 0. 0. 0. 255. 255. 229. 0. 0. 0. 0. 0. 0. 179.
      255. 255. 0. 0. 0. 0. 0. 76. 255. 255. 179. 0. 0. 0. 0. 0. 229.
      255. 255. 26. 0. 0. 0. 0. 128. 255. 255. 128. 0. 0. 0. 0. 0. 255.
      255. 255. 255. 26. 26. 26. 26. 26. 26. 255. 255. 255. 255. 255.
      255. 255. 255. 255. 255. 4. 103. 255. 255. 255. 255. 255. 121. 11.
      0. 1. 26. 26. 26. 26. 26. 175. 255. 233. 11. 0. 0. 0. 0. 0. 0. 0.
      191. 255. 13. 0. 0. 0. 0. 0. 0. 17. 198. 255. 13. 0. 0. 0. 0. 0.
      0. 166. 255. 103. 4. 0. 0. 0. 0. 34. 174. 255. 64. 0. 0. 0. 0. 0.
      80. 241. 255. 106. 6. 0. 0. 0. 19. 159. 255. 198. 57. 0. 0. 0. 0.
      37. 255. 255. 175. 26. 26. 26. 26. 26. 1. 255. 255. 255. 255. 255.
      255. 255. 255. 255. 182. 76. 255. 255. 255. 179. 255. 255. 255.
      76. 0. 26. 26. 26. 26. 0. 26. 26. 255. 255. 229. 0. 0. 0. 0. 0. 0.
      0. 255. 255. 255. 0. 0. 26. 26. 26. 255. 255. 255. 229. 0. 0. 0.
      76. 255. 255. 255. 255. 255. 179. 0. 0. 0. 0. 0. 0. 0. 0. 255.
      255. 255. 0. 0. 0. 0. 0. 0. 0. 26. 255. 255. 0. 0. 0. 0. 0. 0. 0.
      128. 255. 255. 255. 26. 26. 26. 26. 26. 255. 255. 255. 229. 255.
      255. 255. 255. 255. 255. 255. 76. 76. 0. 76. 76. 255. 255. 179.
      255. 255. 255. 76. 0. 26. 26. 26. 26. 0. 26. 26. 255. 255. 229. 0.
      0. 0. 0. 0. 0. 0. 0. 255. 255. 0. 0. 0. 0. 0. 0. 0. 255. 255. 229.
      0. 0. 0. 0. 0. 0. 179. 255. 255. 0. 0. 0. 0. 0. 0. 255. 255. 179.
      0. 0. 0. 0. 0. 0. 229. 255. 26. 0. 0. 0. 0. 128. 128. 255. 128. 0.
      0. 0. 0. 0. 26. 255. 255. 255. 26. 26. 26. 26. 26. 26. 255. 255.
      255. 255. 255. 255. 255. 255. 255. 255. 0. 19. 57. 121. 210. 255.
      255. 255. 255. 255. 229. 236. 248. 255. 255. 255. 255. 255. 255.
      255. 128. 128. 128. 96. 32. 64. 191. 255. 255. 255. 0. 0. 0. 0. 0.
      64. 191. 255. 255. 255. 0. 0. 0. 0. 0. 64. 191. 255. 255. 255. 0.
      0. 0. 0. 0. 64. 191. 255. 255. 255. 0. 0. 0. 0. 0. 64. 191. 255.
      255. 255. 0. 0. 0. 0. 0. 64. 191. 255. 255. 255. 0. 0. 0. 0. 0.
      64. 191. 255. 255. 255. 0. 0. 0. 0. 0. 64. 191. 255. 255. 255. 0.
      0. 19. 139. 255. 255. 255. 255. 190. 9. 0. 34. 236. 255. 152. 26.
      26. 26. 4. 0. 13. 255. 223. 83. 0. 0. 0. 0. 0. 0. 255. 255. 191.
      9. 26. 26. 26. 26. 4. 0. 255. 255. 236. 205. 255. 255. 255. 255.
      190. 9. 255. 255. 236. 116. 0. 0. 116. 179. 243. 255. 255. 255.
      191. 0. 0. 0. 0. 0. 217. 255. 134. 255. 191. 0. 0. 0. 0. 0. 217.
      255. 11. 233. 255. 175. 26. 26. 26. 198. 255. 231. 0. 11. 121.
      255. 255. 255. 255. 255. 103. 4. 76. 76. 255. 255. 255. 255. 255.
      76. 76. 0. 255. 255. 255. 26. 26. 26. 255. 255. 255. 0. 0. 0. 0.
      0. 0. 0. 0. 255. 255. 255. 0. 0. 0. 0. 0. 0. 0. 255. 255. 229. 0.
      0. 0. 0. 0. 0. 179. 255. 255. 0. 0. 0. 0. 0. 0. 76. 255. 179. 0.
      0. 0. 0. 0. 0. 229. 255. 26. 0. 0. 0. 0. 0. 128. 255. 255. 0. 0.
      0. 0. 0. 26. 255. 255. 255. 0. 0. 0. 0. 0. 0. 255. 255. 255. 255.
      179. 179. 179. 179. 179. 179. 4. 76. 121. 255. 255. 255. 255. 121.
      11. 0. 13. 255. 198. 26. 26. 26. 175. 255. 233. 11. 255. 236. 96.
      0. 0. 0. 0. 191. 255. 13. 255. 217. 0. 0. 0. 0. 0. 191. 255. 37.
      255. 243. 134. 0. 0. 0. 116. 236. 255. 255. 9. 190. 255. 192. 76.
      174. 255. 255. 255. 182. 0. 4. 26. 26. 26. 26. 26. 198. 255. 13.
      0. 0. 0. 0. 0. 0. 83. 223. 255. 13. 0. 4. 26. 26. 26. 152. 255.
      236. 34. 0. 9. 190. 255. 255. 255. 255. 139. 19. 0. 0. 0. 0. 64.
      140. 217. 217. 140. 64. 0. 0. 0. 0. 64. 140. 217. 217. 140. 64. 0.
      0. 64. 64. 112. 169. 226. 226. 169. 112. 64. 64. 140. 140. 169.
      203. 238. 238. 203. 169. 140. 140. 217. 217. 226. 238. 249. 249.
      238. 226. 217. 217. 255. 255. 255. 255. 255. 249. 238. 226. 217.
      217. 255. 255. 255. 255. 255. 238. 203. 169. 140. 140. 255. 255.
      255. 255. 255. 226. 169. 112. 64. 64. 255. 255. 255. 255. 255.
      217. 140. 64. 0. 0. 255. 255. 255. 255. 255. 217. 140. 64. 0. 0.
      0. 0. 64. 140. 217. 255. 255. 255. 255. 255. 0. 0. 64. 140. 217.
      255. 255. 255. 255. 255. 64. 64. 112. 169. 226. 255. 255. 255.
      255. 255. 140. 140. 169. 203. 238. 255. 255. 255. 255. 255. 217.
      217. 226. 238. 249. 255. 255. 255. 255. 255. 217. 217. 226. 238.
      249. 255. 255. 255. 255. 255. 140. 140. 169. 203. 238. 255. 255.
      255. 255. 255. 64. 64. 112. 169. 226. 255. 255. 255. 255. 255. 0.
      0. 64. 140. 217. 255. 255. 255. 255. 255. 0. 0. 64. 140. 217. 255.
      255. 255. 255. 255. 0. 0. 0. 51. 102. 153. 204. 255. 255. 255. 0.
      0. 0. 51. 102. 153. 204. 255. 255. 255. 64. 64. 64. 102. 140. 179.
      217. 255. 255. 255. 140. 140. 140. 163. 186. 209. 232. 255. 255.
      255. 217. 217. 217. 224. 232. 240. 247. 255. 255. 255. 255. 255.
      255. 255. 255. 255. 255. 255. 255. 255. 255. 255. 255. 255. 255.
      255. 255. 255. 255. 255. 255. 255. 255. 255. 255. 255. 255. 255.
      255. 255. 255. 255. 255. 255. 255. 255. 255. 255. 255. 255. 255.
      255. 255. 255. 255. 255. 255. 255. 255. 255. 0. 11. 121. 255. 255.
      255. 255. 121. 11. 0. 11. 233. 198. 26. 26. 26. 26. 198. 233. 11.
      134. 255. 191. 0. 0. 0. 0. 191. 255. 134. 255. 255. 191. 0. 0. 0.
      0. 0. 217. 255. 255. 228. 57. 0. 0. 0. 0. 0. 217. 255. 255. 255.
      191. 0. 0. 0. 0. 0. 217. 255. 255. 255. 191. 0. 0. 0. 0. 0. 217.
      255. 134. 255. 191. 0. 0. 0. 0. 191. 255. 134. 11. 233. 255. 175.
      26. 26. 175. 255. 233. 11. 0. 11. 121. 255. 255. 255. 255. 121.
      11. 0. 0. 0. 0. 46. 112. 219. 255. 255. 255. 255. 229. 229. 229.
      245. 255. 255. 255. 255. 255. 255. 128. 128. 128. 51. 0. 0. 102.
      255. 255. 255. 0. 0. 0. 0. 0. 0. 102. 255. 255. 255. 0. 0. 0. 0.
      0. 0. 102. 255. 255. 255. 0. 0. 0. 0. 0. 0. 102. 255. 255. 255. 0.
      0. 0. 0. 0. 0. 102. 255. 255. 255. 0. 0. 0. 0. 0. 0. 102. 255.
      255. 255. 0. 0. 0. 0. 0. 0. 102. 255. 255. 255. 0. 0. 0. 0. 0. 0.
      102. 255. 255. 255. 4. 76. 121. 255. 255. 255. 255. 121. 11. 0.
      13. 255. 198. 26. 26. 26. 175. 255. 233. 11. 255. 255. 191. 0. 0.
      0. 0. 191. 255. 13. 255. 217. 0. 0. 0. 0. 0. 172. 251. 255. 255.
      217. 0. 0. 0. 0. 0. 0. 217. 255. 255. 217. 0. 0. 0. 0. 0. 0. 217.
      255. 255. 217. 0. 0. 0. 0. 0. 172. 251. 255. 134. 255. 191. 0. 0.
      0. 0. 191. 255. 13. 11. 233. 255. 175. 26. 26. 175. 255. 233. 11.
      0. 11. 121. 255. 255. 255. 255. 121. 11. 0. 0. 76. 255. 255. 179.
      179. 255. 255. 76. 0. 0. 255. 255. 26. 0. 0. 26. 255. 255. 0. 255.
      255. 0. 0. 0. 0. 0. 0. 255. 255. 255. 255. 0. 0. 0. 0. 0. 0. 255.
      255. 255. 255. 0. 0. 0. 0. 0. 0. 255. 255. 255. 255. 0. 0. 0. 0.
      0. 0. 255. 255. 255. 255. 0. 0. 0. 0. 0. 0. 255. 255. 255. 255. 0.
      0. 0. 0. 0. 128. 255. 255. 0. 255. 255. 26. 26. 26. 26. 255. 255.
      0. 0. 76. 76. 255. 255. 255. 255. 76. 76. 0. 0. 11. 121. 255. 221.
      221. 255. 121. 11. 0. 11. 233. 198. 26. 14. 14. 26. 198. 233. 11.
      134. 255. 191. 0. 0. 0. 0. 96. 236. 13. 255. 217. 0. 0. 0. 0. 0.
      0. 217. 255. 255. 217. 0. 0. 0. 0. 0. 0. 217. 255. 255. 217. 0. 0.
      0. 0. 0. 0. 217. 255. 255. 251. 172. 0. 0. 0. 0. 0. 217. 255. 134.
      255. 191. 0. 0. 0. 0. 191. 255. 13. 11. 233. 255. 175. 26. 26.
      175. 255. 233. 11. 0. 11. 121. 255. 255. 255. 255. 121. 11. 0. 0.
      76. 255. 255. 179. 179. 255. 255. 76. 0. 0. 255. 255. 26. 0. 0.
      26. 255. 255. 0. 255. 255. 0. 0. 0. 0. 0. 0. 255. 255. 255. 255.
      0. 0. 0. 0. 0. 0. 255. 255. 255. 255. 0. 0. 0. 0. 0. 0. 255. 255.
      255. 255. 0. 0. 0. 0. 0. 0. 255. 255. 255. 255. 0. 0. 0. 0. 0. 0.
      255. 255. 255. 255. 0. 0. 0. 0. 0. 128. 255. 255. 0. 255. 255. 26.
      26. 26. 26. 255. 255. 0. 0. 76. 76. 255. 255. 255. 255. 76. 76. 0.
      0. 11. 76. 139. 255. 255. 205. 179. 27. 0. 11. 233. 255. 175. 26.
      26. 9. 0. 0. 0. 13. 255. 191. 0. 0. 0. 0. 0. 0. 0. 255. 255. 191.
      9. 26. 26. 26. 26. 4. 0. 255. 255. 236. 205. 255. 255. 255. 255.
      190. 9. 255. 255. 191. 0. 0. 0. 0. 191. 255. 85. 255. 221. 19. 0.
      0. 0. 0. 19. 221. 255. 255. 255. 191. 0. 0. 0. 0. 96. 236. 134.
      11. 233. 255. 175. 26. 26. 175. 255. 233. 11. 0. 11. 121. 255.
      255. 255. 255. 121. 11. 0. 0. 11. 121. 255. 255. 255. 255. 121.
      76. 4. 11. 233. 255. 175. 26. 26. 26. 198. 255. 13. 13. 255. 191.
      0. 0. 0. 0. 96. 236. 255. 255. 255. 191. 0. 0. 0. 0. 0. 217. 255.
      255. 255. 191. 0. 0. 0. 0. 0. 217. 255. 255. 255. 191. 0. 0. 0. 0.
      0. 217. 255. 37. 255. 191. 0. 0. 0. 0. 0. 217. 255. 13. 255. 191.
      0. 0. 0. 0. 96. 236. 255. 0. 38. 255. 175. 26. 26. 175. 255. 233.
      11. 0. 11. 121. 255. 255. 255. 255. 121. 11. 0. 76. 76. 255. 255.
      179. 255. 255. 255. 76. 0. 26. 26. 26. 26. 0. 26. 26. 255. 255.
      229. 0. 0. 0. 0. 0. 0. 0. 0. 255. 255. 0. 0. 0. 0. 0. 0. 0. 255.
      255. 229. 0. 0. 0. 0. 0. 0. 179. 255. 255. 0. 0. 0. 0. 0. 0. 255.
      255. 179. 0. 0. 0. 0. 0. 0. 229. 255. 26. 0. 0. 0. 0. 0. 128. 255.
      128. 0. 0. 0. 0. 0. 26. 255. 255. 255. 26. 26. 26. 26. 26. 26.
      255. 255. 255. 255. 255. 255. 255. 255. 255. 255. 179. 179. 179.
      179. 179. 179. 228. 255. 255. 255. 0. 0. 0. 0. 0. 0. 17. 198. 255.
      37. 0. 0. 0. 0. 0. 0. 83. 223. 147. 6. 0. 0. 0. 0. 0. 14. 175.
      255. 38. 0. 0. 0. 0. 0. 0. 140. 255. 121. 11. 0. 0. 0. 0. 0. 115.
      255. 205. 45. 0. 0. 0. 0. 0. 80. 241. 255. 89. 0. 0. 0. 0. 0. 0.
      89. 255. 185. 45. 0. 0. 0. 0. 0. 64. 255. 243. 103. 0. 0. 0. 0. 0.
      0. 64. 255. 140. 0. 0. 0. 0. 0. 0. 76. 255. 255. 255. 179. 255.
      255. 76. 0. 229. 255. 255. 26. 26. 0. 26. 255. 255. 229. 255. 255.
      128. 0. 0. 0. 0. 255. 255. 255. 0. 255. 255. 26. 26. 26. 26. 255.
      229. 0. 0. 76. 255. 255. 255. 255. 255. 255. 0. 0. 76. 255. 255.
      179. 179. 179. 179. 255. 255. 76. 255. 255. 26. 0. 0. 0. 0. 26.
      255. 255. 255. 255. 0. 0. 0. 0. 0. 0. 255. 255. 229. 255. 255. 26.
      26. 26. 26. 255. 255. 229. 0. 76. 255. 255. 255. 255. 255. 255.
      76. 0. 0. 255. 255. 255. 179. 179. 179. 179. 179. 0. 0. 255. 255.
      26. 0. 0. 0. 0. 0. 0. 0. 255. 128. 0. 0. 0. 0. 0. 0. 0. 255. 255.
      255. 26. 26. 26. 26. 26. 0. 0. 76. 255. 255. 255. 255. 255. 255.
      255. 179. 0. 0. 0. 0. 0. 0. 0. 0. 179. 255. 255. 0. 0. 0. 0. 0. 0.
      0. 0. 255. 255. 0. 0. 0. 0. 0. 0. 0. 128. 255. 255. 255. 26. 26.
      26. 26. 26. 255. 255. 255. 229. 76. 255. 255. 255. 255. 255. 255.
      76. 76. 0. 4. 103. 255. 255. 255. 255. 255. 121. 11. 0. 1. 26. 26.
      26. 26. 26. 175. 255. 233. 11. 0. 0. 0. 0. 0. 0. 0. 191. 255. 13.
      0. 0. 0. 0. 0. 0. 17. 198. 255. 13. 0. 0. 0. 0. 0. 0. 166. 255.
      103. 4. 0. 0. 0. 0. 34. 174. 255. 64. 0. 0. 0. 0. 0. 80. 241. 255.
      106. 6. 0. 0. 0. 19. 159. 255. 198. 57. 0. 0. 0. 0. 37. 255. 255.
      175. 26. 26. 26. 26. 26. 1. 255. 255. 255. 255. 255. 255. 255.
      255. 255. 182. 0. 11. 121. 255. 255. 255. 255. 121. 76. 4. 11.
      233. 255. 175. 26. 26. 26. 198. 255. 13. 13. 255. 191. 0. 0. 0. 0.
      96. 236. 255. 37. 255. 191. 0. 0. 0. 0. 0. 217. 255. 255. 255.
      191. 0. 0. 0. 0. 0. 217. 255. 255. 255. 191. 0. 0. 0. 0. 0. 217.
      255. 37. 255. 191. 0. 0. 0. 0. 0. 217. 255. 13. 255. 191. 0. 0. 0.
      0. 96. 236. 255. 0. 38. 255. 175. 26. 26. 175. 255. 233. 11. 0.
      11. 121. 255. 255. 255. 255. 121. 11. 0. 0. 255. 255. 255. 179.
      179. 179. 179. 179. 0. 0. 255. 255. 26. 0. 0. 0. 0. 0. 0. 0. 255.
      255. 0. 0. 0. 0. 0. 0. 0. 26. 255. 255. 26. 26. 26. 26. 26. 0. 0.
      76. 255. 255. 255. 255. 255. 255. 255. 179. 0. 0. 0. 0. 0. 0. 0.
      0. 179. 255. 255. 0. 0. 0. 0. 0. 0. 0. 0. 255. 255. 0. 0. 0. 0. 0.
      0. 0. 0. 255. 255. 26. 26. 26. 26. 26. 26. 26. 255. 255. 229. 76.
      255. 255. 255. 255. 255. 255. 255. 76. 0. 0. 0. 19. 139. 255. 255.
      255. 255. 190. 9. 0. 34. 236. 255. 152. 26. 26. 26. 4. 0. 6. 147.
      223. 83. 0. 0. 0. 0. 0. 0. 13. 255. 191. 9. 26. 26. 26. 26. 4. 0.
      13. 255. 236. 205. 255. 255. 255. 255. 190. 9. 255. 255. 236. 116.
      0. 0. 0. 134. 243. 255. 37. 255. 191. 0. 0. 0. 0. 0. 217. 255. 13.
      255. 191. 0. 0. 0. 0. 0. 217. 255. 0. 38. 255. 175. 26. 26. 26.
      198. 255. 231. 0. 11. 121. 255. 255. 255. 255. 255. 103. 4. 0. 76.
      255. 255. 255. 255. 255. 255. 76. 0. 0. 255. 255. 26. 26. 26. 26.
      255. 255. 229. 255. 255. 0. 0. 0. 0. 0. 128. 255. 255. 255. 255.
      0. 0. 0. 0. 0. 0. 255. 255. 255. 255. 0. 0. 0. 0. 0. 0. 255. 255.
      255. 255. 0. 0. 0. 0. 0. 0. 255. 255. 255. 255. 0. 0. 0. 0. 0. 0.
      255. 255. 255. 255. 0. 0. 0. 0. 0. 128. 255. 255. 0. 255. 255. 26.
      26. 26. 26. 255. 255. 0. 0. 76. 255. 255. 255. 255. 255. 76. 76.
      0.</data></samples>
  <responses type_id="opencv-matrix">
    <rows>40</rows>
    <cols>1</cols>
    <dt>f</dt>
    <data>
      46. 46. 48. 48. 48. 52. 50. 56. 54. 57. 55. 51. 50. 50. 51. 50.
      49. 54. 50. 57. 46. 46. 46. 48. 49. 48. 48. 48. 48. 54. 48. 50.
      55. 56. 53. 50. 48. 53. 54. 48.</data></responses></opencv_ml_knn>
</opencv_storage>
